{"layers":[{"out_depth":38,"out_sx":1,"out_sy":1,"layer_type":"input"},{"out_depth":"32","out_sx":1,"out_sy":1,"layer_type":"fc","num_inputs":38,"l1_decay_mul":0,"l2_decay_mul":1,"filters":[{"sx":1,"sy":1,"depth":38,"w":{"0":-0.0006759791158990817,"1":-0.0004737735999492148,"2":-0.0006950984600711587,"3":-0.00028948972858356217,"4":-0.0004896397928878651,"5":-0.00030526287689438647,"6":-0.000428817139508091,"7":-0.000214676767545642,"8":-0.0019646370147874126,"9":-0.0019302129387209395,"10":-0.0015546144213316102,"11":-0.0019965025452078483,"12":-0.001961882801246656,"13":-0.001981679003883524,"14":-0.0019707018602807707,"15":-0.0018981985992847315,"16":-0.0019553099314112542,"17":-0.001915558287564998,"18":-0.0020311449161759857,"19":-0.0019437185928436898,"20":-0.0019425188961498762,"21":-0.0020308441343702393,"22":-0.001917064257703636,"23":-0.002009438999790575,"24":-0.002065228700749547,"25":-0.001909016334000068,"26":-0.002108068242856582,"27":-0.001951407786471288,"28":-0.0020375570547153015,"29":-0.0019615523885557567,"30":-0.0009560960391120772,"31":-0.0019069840817313775,"32":-0.0018671960247540987,"33":-0.0020011389953709315,"34":-0.0019753922114655238,"35":-0.0019699817865678473,"36":-0.0015699161449174211,"37":-0.0019136249744780695}},{"sx":1,"sy":1,"depth":38,"w":{"0":0.02477894590351082,"1":-0.19705450933609872,"2":0.595530691586391,"3":0.04970323990345739,"4":0.0840549757378364,"5":0.007652212322336378,"6":0.2172514279271921,"7":0.14274353487152303,"8":0.37554473816916406,"9":0.00950325825207897,"10":-0.337863683988007,"11":-0.18645072223435138,"12":0.4587953724416842,"13":0.6646609363461925,"14":-0.4697213745455626,"15":-0.6242930095595537,"16":-0.23023622816140688,"17":-0.14373871704954685,"18":-0.23381195206361738,"19":-0.8202004211906145,"20":0.3115979139558523,"21":-0.5746021250907871,"22":0.05271807324444784,"23":-0.1286078128146451,"24":0.02176089311985894,"25":0.7508911144598336,"26":0.29631992269922686,"27":-0.267828421022246,"28":-0.1978164197400903,"29":-0.3943318154468115,"30":-0.4711523721990349,"31":0.3605728336250049,"32":-0.17004121066444508,"33":-0.05204922053898465,"34":-0.12392483510881463,"35":0.006041152304198674,"36":-0.3975959661110336,"37":0.03560292143282581}},{"sx":1,"sy":1,"depth":38,"w":{"0":-0.00010192176720933767,"1":-0.00012508005823012693,"2":-0.0001282271590403641,"3":-0.00004734752977456801,"4":-0.00011180352279168353,"5":-0.00005896022735256859,"6":-0.00007720588620375276,"7":-0.00006275049608878254,"8":-0.0010756053863082422,"9":-0.0003947540595871013,"10":-0.00030670378074081463,"11":-0.000667521469567943,"12":-0.0006855187962341517,"13":-0.000759676454225718,"14":-0.0009524096986804211,"15":-0.0008710604088453069,"16":-0.00041212005072213903,"17":-0.00038309616273333487,"18":-0.0006045412853155862,"19":-0.00048658188079938073,"20":-0.0005409162956664586,"21":-0.0006187801714693643,"22":-0.0004848339252621426,"23":-0.000770087992398783,"24":-0.0006544116697192297,"25":-0.0009129005298034285,"26":-0.0012035935052035617,"27":-0.0004916091549585173,"28":-0.0005481996475523122,"29":-0.0005018195782932469,"30":-0.00011559810517953621,"31":-0.0007501698833832441,"32":-0.0013785535746676846,"33":-0.0010228230960927847,"34":-0.00046231298535963133,"35":-0.0006475100840735515,"36":-0.00030584432171241576,"37":-0.00038595920571662647}},{"sx":1,"sy":1,"depth":38,"w":{"0":-0.00004749964576723463,"1":-0.00006888898977658239,"2":-0.00006006359215270389,"3":-0.000021878853735776345,"4":-0.000054443593628942986,"5":-0.00003935458660970955,"6":-0.000017801415423970043,"7":-0.000018096007871050282,"8":-0.0009288954731339015,"9":-0.00029792255361428153,"10":-0.00017042589227978086,"11":-0.0005466959320172951,"12":-0.0005734973737241148,"13":-0.0006676539537410995,"14":-0.0007602510268205287,"15":-0.000619316993039063,"16":-0.00030705889668171095,"17":-0.00024739027717955166,"18":-0.0005071403220504591,"19":-0.0006157943986308536,"20":-0.000447178491415924,"21":-0.0005015436320391304,"22":-0.00036053475799765735,"23":-0.0006528746983651849,"24":-0.0006366939867520935,"25":-0.0007323469338039392,"26":-0.001115414243016695,"27":-0.00044324044902329534,"28":-0.0005246651106681085,"29":-0.00044415627682871975,"30":-0.00030938541983317747,"31":-0.0006580467131992688,"32":-0.0010793128029426102,"33":-0.000890960468526483,"34":-0.00031916223931712564,"35":-0.000490368792259315,"36":-0.00016322716546272043,"37":-0.0002937479314159881}},{"sx":1,"sy":1,"depth":38,"w":{"0":-0.0014319769818361913,"1":-0.0010265898109379737,"2":-0.001418197726724004,"3":-0.000818153461040276,"4":-0.0013185012347881255,"5":-0.0007713418827654856,"6":-0.0011478982041272432,"7":-0.0005068391759311986,"8":-0.0018670040322322156,"9":-0.002610586744351756,"10":-0.0025557270549593732,"11":-0.002322147568314126,"12":-0.0022441169068075162,"13":-0.0021847632209804286,"14":-0.001950255198874864,"15":-0.0018080277111040075,"16":-0.0025931080434002966,"17":-0.002577068597598582,"18":-0.0023487327243653174,"19":-0.0025737806323830065,"20":-0.002539080629489136,"21":-0.0023018738730756034,"22":-0.002566487008107175,"23":-0.0022161562123492622,"24":-0.002362753505471145,"25":-0.0016696884556763175,"26":-0.002073059858783968,"27":-0.0025323757597951945,"28":-0.002456603073228946,"29":-0.0025299273878901774,"30":-0.002136818323590011,"31":-0.0020648477739525417,"32":-0.0015449760527443289,"33":-0.0019221651871698345,"34":-0.0025399128718740704,"35":-0.0022843309386339408,"36":-0.0025504415920092754,"37":-0.002603278759864667}},{"sx":1,"sy":1,"depth":38,"w":{"0":-0.23953622704559585,"1":0.2842806482562937,"2":-0.471093145917733,"3":0.2568286660738007,"4":-0.06930557766771968,"5":0.14769012951485208,"6":-0.013221459208438147,"7":0.19280267897912848,"8":0.44339215952994726,"9":0.4446712121174074,"10":0.04567758588095517,"11":-0.19974670719424018,"12":0.07379345719881461,"13":0.271516287540773,"14":-0.5722691480758895,"15":-0.5483885692855224,"16":0.4773166976757228,"17":0.5290577186444038,"18":-0.19068721455570414,"19":-1.1941317821625097,"20":-0.10402350108549643,"21":0.07479503282642523,"22":0.04768958797664031,"23":-0.2974793911404425,"24":0.28174258943058506,"25":0.3332003510917328,"26":0.29697186176981777,"27":-0.21601717601398204,"28":0.3399506248245722,"29":-0.2419043903505538,"30":-0.6132412418231283,"31":-1.0010472292443235,"32":0.0045434179918870735,"33":-0.004405885521427914,"34":0.41162127220743633,"35":-0.08114277768440624,"36":-0.05505151842311055,"37":0.5814265689854863}},{"sx":1,"sy":1,"depth":38,"w":{"0":-0.45193983176041086,"1":-0.8929356025069134,"2":1.1042895619707849,"3":0.021313039883199474,"4":0.6534184376448926,"5":0.11331389656605749,"6":0.5244081287906591,"7":-0.09990351757280724,"8":-0.958269560711347,"9":-0.145941980460953,"10":0.20166386497961625,"11":0.024017946977474565,"12":0.07949350687966837,"13":0.07162222592946647,"14":-0.3448165146176744,"15":0.1604910069775974,"16":-0.06618051180600397,"17":-0.007572566380613694,"18":0.14009358428161128,"19":0.40077365527392117,"20":-0.2348718465140508,"21":0.4274314865699487,"22":-0.21107848250670241,"23":-0.33414768693049424,"24":0.8298090651385841,"25":-0.03418133780336662,"26":-0.43844930405399873,"27":0.6705352728534922,"28":0.8180352004563683,"29":0.5717313784450161,"30":-0.015981701131997497,"31":0.4500663940715309,"32":0.2077289392905829,"33":0.2809431360653607,"34":0.2119006419242762,"35":-0.25206105509795834,"36":0.09841685535285896,"37":-0.2977987515377274}},{"sx":1,"sy":1,"depth":38,"w":{"0":-0.000019157301164570268,"1":-0.000014855310914431874,"2":-0.00002163968087979255,"3":-0.000006728450840045792,"4":-0.000015005729614852274,"5":-0.000010934424551454865,"6":-0.000016433371763038607,"7":-0.0000049158706575008645,"8":-0.0004237481709235044,"9":-0.00011125130403787477,"10":-0.00005409434540504763,"11":-0.0002189384159375123,"12":-0.0002558214030205178,"13":-0.00028593709207681503,"14":-0.0003303172148548753,"15":-0.00037421057487748474,"16":-0.0001264562570219239,"17":-0.00010613166464962149,"18":-0.00023772005291379064,"19":-0.0002069830509023284,"20":-0.0001630340008747138,"21":-0.0001947173328152477,"22":-0.00014128814577723508,"23":-0.0002575392180871623,"24":-0.00020327440634008686,"25":-0.0004757717661693057,"26":-0.0003700114250360452,"27":-0.0001431002409677037,"28":-0.00017253449533159745,"29":-0.00014408163310925082,"30":-0.00007063006019505824,"31":-0.00028031945854471127,"32":-0.0005709319585756699,"33":-0.0003637102866905279,"34":-0.00013810894014927843,"35":-0.00023155632833900212,"36":-0.00005596294955720169,"37":-0.00010674758418958233}},{"sx":1,"sy":1,"depth":38,"w":{"0":-0.00011015481903179601,"1":-0.00014141448542159723,"2":-0.00015115418132803773,"3":-0.00006540213736989689,"4":-0.0001780427869054678,"5":-0.00010314234210934607,"6":-0.00014032473220913566,"7":-0.00007298327369934673,"8":-0.0017098145583866523,"9":-0.0006176177551126571,"10":-0.0003439096283279371,"11":-0.0009213879404575418,"12":-0.0009116241102154665,"13":-0.0010371447403173823,"14":-0.0013988331668614666,"15":-0.0010400934225999196,"16":-0.0006019274238214542,"17":-0.000565372121686673,"18":-0.0007946021447897286,"19":-0.0011099774844004378,"20":-0.0007132967861038238,"21":-0.0009155222066168855,"22":-0.0005931318431500841,"23":-0.0011603486799627106,"24":-0.00099362878031465,"25":-0.0010590977908429872,"26":-0.0019592523535565446,"27":-0.0007236289724633937,"28":-0.0008059994713474018,"29":-0.0007210470665223997,"30":-0.0005953143178505106,"31":-0.0011652987344053136,"32":-0.002031796852864588,"33":-0.0015492210934536458,"34":-0.0006512876524032862,"35":-0.0008099689070642544,"36":-0.0003483014751357641,"37":-0.0006051348071509427}},{"sx":1,"sy":1,"depth":38,"w":{"0":0.3519762218253899,"1":0.047739174213725664,"2":-0.10334404125955828,"3":-0.06543884334985568,"4":-0.16611754912676396,"5":-0.5080609769810592,"6":-0.09712910687361713,"7":-0.21045225488281227,"8":-0.04785849530796193,"9":0.6005337961436024,"10":0.16132646037461407,"11":0.019348937531137176,"12":0.303398964876919,"13":0.15941575806036049,"14":0.15224066297616765,"15":0.20703799116928912,"16":0.09507468961621343,"17":0.7487487200672902,"18":-0.30033055126243124,"19":0.18961517301390624,"20":0.04770452823774542,"21":-0.04786447289614984,"22":0.18949341915207307,"23":0.20053280489970843,"24":-0.14334001084999987,"25":-0.7723124798497795,"26":-0.2965659310656429,"27":-0.3986415352001937,"28":-0.2554663925396723,"29":-0.2212123882311869,"30":-0.29459904366279976,"31":0.3963455939899465,"32":0.20993134869595692,"33":-0.06369066089055055,"34":0.4488777557255688,"35":-0.019002506866899194,"36":0.097010618595026,"37":0.6180245060043057}},{"sx":1,"sy":1,"depth":38,"w":{"0":-0.00010811489745992142,"1":-0.00008839503985120518,"2":-0.00012277959799349164,"3":-0.000016155012786515357,"4":-0.0000067185158521080946,"5":0.000019357304866326165,"6":-0.00007536046212011134,"7":-0.00001261925741654233,"8":-0.0008156343601012405,"9":-0.000525630931873439,"10":-0.00037099697656536716,"11":-0.0007083729838684839,"12":-0.0007474237083452519,"13":-0.0007826884155996713,"14":-0.0008529758195457016,"15":-0.0008603541025797803,"16":-0.0005693470824841891,"17":-0.0005825798347330451,"18":-0.0007703742342980106,"19":-0.0002614752603818428,"20":-0.0005668788162338003,"21":-0.0007788790323704569,"22":-0.0005658380907053211,"23":-0.0007332998151741039,"24":-0.0007482466744448595,"25":-0.0008124139475837893,"26":-0.0007574663498264015,"27":-0.0005681453362676986,"28":-0.0007170716574623307,"29":-0.0005686952574030479,"30":0.0001752384661999931,"31":-0.0006940735889520561,"32":-0.0009141473738098885,"33":-0.0008714010779654544,"34":-0.0006788363790082681,"35":-0.0007463739719145827,"36":-0.00038158801047799974,"37":-0.0005420943664363553}},{"sx":1,"sy":1,"depth":38,"w":{"0":-0.023612524732629845,"1":0.3230164703032544,"2":0.030806786222646987,"3":-0.4356214528174008,"4":-0.40311047663670896,"5":-0.0452423194474644,"6":-0.21197862975271414,"7":0.04346955060280183,"8":-0.34363697480361927,"9":-0.44084579668792334,"10":-0.6454989418753344,"11":0.33093807854598917,"12":0.5249786731737744,"13":0.18159532729915054,"14":0.1149862857400314,"15":0.4895582034716494,"16":-0.4778134218330588,"17":-0.49202001857708566,"18":-0.23476267421076685,"19":-0.03741574575482031,"20":0.16693474498933325,"21":-0.4289013657613417,"22":-0.03261975694488343,"23":0.33586444889051453,"24":-0.6494703180228503,"25":0.6376795765380926,"26":-0.12709712466072,"27":-0.4681717146847946,"28":-0.8711795704968265,"29":-0.23156607374682348,"30":-0.3487470096382342,"31":0.6685956778116405,"32":0.05542834775324994,"33":-0.02553378088058009,"34":-0.506824724548628,"35":0.4538598733473735,"36":-0.49639762704811397,"37":-0.3169987533082903}},{"sx":1,"sy":1,"depth":38,"w":{"0":-0.00003697078278176606,"1":-0.000029745495687128632,"2":-0.000034438410888959716,"3":-0.00001665717951590077,"4":-0.00003584418911006199,"5":-0.000025629321878157992,"6":-0.000012518960297459911,"7":-0.000015081119681864034,"8":-0.00046083487032366234,"9":-0.0002300111917547042,"10":-0.00012299050035095065,"11":-0.00033146529077493985,"12":-0.00032816870135515586,"13":-0.00035957129054705564,"14":-0.00044828061954634685,"15":-0.00040028357935661984,"16":-0.0002274768674540212,"17":-0.0002167077528513346,"18":-0.00029532797548393144,"19":-0.0002861670001927236,"20":-0.00025688574285940473,"21":-0.00033461506291304453,"22":-0.00021869394826969392,"23":-0.0003937110171616078,"24":-0.0003432346854554277,"25":-0.000407449613919361,"26":-0.0005024233356924419,"27":-0.00025119258233069106,"28":-0.00028925683611698196,"29":-0.0002552446270326356,"30":-0.00007882410451061661,"31":-0.0004065871805872797,"32":-0.0005165382444453666,"33":-0.0004641441871869586,"34":-0.00024924044507175323,"35":-0.00030857189015039464,"36":-0.0001222802367089264,"37":-0.00022467720482052122}},{"sx":1,"sy":1,"depth":38,"w":{"0":-0.00002617267360042942,"1":-0.0000404004854847149,"2":-0.000075756832144858,"3":-0.000009650094375474658,"4":-0.00004408568707773484,"5":-0.00002629499354654256,"6":-0.000042556729920949004,"7":-0.000019194289106715116,"8":-0.0004953593153982595,"9":-0.0002025425456919976,"10":-0.00010747191415869468,"11":-0.00026893516713169806,"12":-0.0003255858637982291,"13":-0.000315228868684416,"14":-0.00042399014640652797,"15":-0.0004137343446641819,"16":-0.000151112007782284,"17":-0.0002031289573468487,"18":-0.00010498121460618595,"19":-0.00028919801777336704,"20":-0.00023087714208458525,"21":-0.00025034959028312763,"22":-0.00019935840962323947,"23":-0.0003750191198489368,"24":-0.00013850396575946852,"25":-0.00028604830137871187,"26":-0.00034981488494341075,"27":-0.00014626179624792235,"28":-0.00008990850895036388,"29":-0.00015134140445919266,"30":-0.00011454006591137727,"31":-0.0005228443136913568,"32":-0.000562557634178204,"33":-0.0003961457421090324,"34":-0.00020200564991866424,"35":-0.0002673012767898853,"36":-0.00011183950911273726,"37":-0.0001973522924604266}},{"sx":1,"sy":1,"depth":38,"w":{"0":-0.000029098521206776155,"1":-0.000021028662289589303,"2":-0.00002535775785104074,"3":-0.000017140780915350053,"4":-0.00003117716425499768,"5":-0.000019768138742196315,"6":0.000006726299973588578,"7":-0.000010022227112134429,"8":-0.000330022810831207,"9":-0.0002116642191472661,"10":-0.0000900777332130411,"11":-0.00022491535555349933,"12":-0.00022511753424035984,"13":-0.00025116526283194737,"14":-0.0002802373033066986,"15":-0.0002121581228245651,"16":-0.00019733977280880769,"17":-0.00019789383589822345,"18":-0.00018514991547289434,"19":-0.000222130275983803,"20":-0.00018499216305675905,"21":-0.0002445521026751319,"22":-0.00015700536616021276,"23":-0.0002789519924197034,"24":-0.0002495131195972702,"25":-0.00021154571625193487,"26":-0.0003478447381402368,"27":-0.00016731076939354393,"28":-0.00019483473577233776,"29":-0.00017658218758933602,"30":-0.00007358791944441882,"31":-0.00023804257073352521,"32":-0.0003286938912533923,"33":-0.000309257068797237,"34":-0.00020915723391374966,"35":-0.00018803858851724063,"36":-0.00008462730968819885,"37":-0.00020551558729434456}},{"sx":1,"sy":1,"depth":38,"w":{"0":-0.5840104912806441,"1":0.5612142719788198,"2":-0.4844398879764887,"3":1.0436145751232448,"4":-0.02503113748103106,"5":0.6803351657986418,"6":0.17344655959374572,"7":0.6209347065024817,"8":0.30716702879749297,"9":-0.31980838501199715,"10":-0.752982787373932,"11":0.3183030820531347,"12":0.21812203390576418,"13":0.06667854059759733,"14":-0.04594063323552447,"15":0.4447536332627,"16":-0.46030766658525313,"17":-0.5724528579872501,"18":0.7047626091901558,"19":0.06381847453427751,"20":0.3130638399007325,"21":-1.1160557753691807,"22":0.4522985849136822,"23":0.26564355683527413,"24":-0.5758813891153248,"25":-0.1449101722897304,"26":0.5945487490014829,"27":-0.5728642069275364,"28":-0.3039608395320532,"29":-0.1337701843519997,"30":0.7232051431444133,"31":0.5684302074113708,"32":-0.030313021335739647,"33":-0.499573021043788,"34":-0.45821028347078135,"35":0.21459450159860827,"36":-0.6667374123885045,"37":-0.36140004858188346}},{"sx":1,"sy":1,"depth":38,"w":{"0":-0.000056405998233659476,"1":-0.00001864477706275519,"2":-0.0000627533332851332,"3":-0.000013204603263462174,"4":-0.000019361225469069294,"5":4.155942845660572e-7,"6":-0.000049464849561950783,"7":-0.0000026112068100463433,"8":-0.0008583974464486192,"9":-0.00025144371922304105,"10":-0.00012200303909710318,"11":-0.0004744939377932514,"12":-0.0005211492131052649,"13":-0.0005724047696990522,"14":-0.0007243703259666493,"15":-0.0006742656854673822,"16":-0.00028109564255456726,"17":-0.00026448166738553296,"18":-0.0004126114648936195,"19":-0.00026468398968460037,"20":-0.0003278706759141825,"21":-0.0004825400105672125,"22":-0.00031719774567942675,"23":-0.0005457047505263787,"24":-0.00043532140723851,"25":-0.0006061080218995329,"26":-0.0007391886962850725,"27":-0.0002334114829251826,"28":-0.00031364918676389785,"29":-0.0002437423917522656,"30":-0.0000797263058318186,"31":-0.0003692166459813977,"32":-0.0009733233589135366,"33":-0.0007568147959276212,"34":-0.0003119858891605655,"35":-0.00046480697718813754,"36":-0.000132060127019381,"37":-0.00024480548870341005}},{"sx":1,"sy":1,"depth":38,"w":{"0":-0.000053203196061726626,"1":-0.00004908996866848691,"2":-0.0000652323614441826,"3":-0.000025240997176632532,"4":-0.000046987489340615875,"5":-0.000019832020366924827,"6":-0.000051606162036414614,"7":-0.00001812288988732408,"8":-0.0010009850487358075,"9":-0.00029889640306888035,"10":-0.00018651089055835035,"11":-0.0005671308075862256,"12":-0.0006257034598603978,"13":-0.0006971108340788229,"14":-0.0009260024944070281,"15":-0.0008985969976092815,"16":-0.0003171593127413355,"17":-0.0003024544942217415,"18":-0.0005221131207459564,"19":-0.00037034161452776494,"20":-0.00041444661456761946,"21":-0.0005581470932731624,"22":-0.0003635321564136178,"23":-0.0006954420475506875,"24":-0.0005492586651995137,"25":-0.0009602321057401013,"26":-0.001070265217675722,"27":-0.0003901971219157053,"28":-0.00045866585006474453,"29":-0.0003996000013463857,"30":-0.000047339409077443444,"31":-0.000749536720417671,"32":-0.0014272566864677665,"33":-0.0009903825559599215,"34":-0.00038317290473020995,"35":-0.0005609769246050695,"36":-0.00019126525348699155,"37":-0.0002959029981200944}},{"sx":1,"sy":1,"depth":38,"w":{"0":-0.00003383385528663082,"1":-0.000028026205908427643,"2":-0.000058295442866010144,"3":-0.00001898919218856819,"4":-0.000029905196130886948,"5":-0.000013192565903080747,"6":-0.000044080903130091537,"7":-0.000018748301607577998,"8":-0.0004108597562018683,"9":-0.0001757996935569593,"10":-0.00011679315088397151,"11":-0.000253364350929615,"12":-0.00026683436086555274,"13":-0.0002849676669621171,"14":-0.00035994500064027106,"15":-0.00034515959924845727,"16":-0.00016761642359322833,"17":-0.00018169515833403962,"18":-0.00019325868972864944,"19":-0.00018172731827199138,"20":-0.00019997242520054502,"21":-0.0002571442158534769,"22":-0.00017794180362278869,"23":-0.00030318436309472786,"24":-0.00023697360977728948,"25":-0.00034840780456790954,"26":-0.00039388596973245017,"27":-0.00017707402585797632,"28":-0.00018407276198341636,"29":-0.0001808525038388728,"30":-0.000043771260345648494,"31":-0.000346438169624189,"32":-0.0005146963684968073,"33":-0.0003807770528778848,"34":-0.00020071709686840056,"35":-0.0002453073896669571,"36":-0.00011917746378044315,"37":-0.0001740654223851223}},{"sx":1,"sy":1,"depth":38,"w":{"0":-0.000047386828103853004,"1":-0.000042851896696196774,"2":-0.00009206699011466985,"3":-0.000030272043133581533,"4":-0.00005117247620653192,"5":-0.000016422515725082814,"6":-0.00007091542702569008,"7":-0.000024442262102611087,"8":-0.00023613426348389555,"9":-0.0002519560253372129,"10":-0.00018849835818206522,"11":-0.0002886434282398416,"12":-0.00030391287257228205,"13":-0.00029839205272519457,"14":-0.0002812452624458215,"15":-0.0003156806987240442,"16":-0.00025250789660074993,"17":-0.0002593861723349161,"18":-0.00029350569535307704,"19":-0.00023156090688207506,"20":-0.0002690053105443572,"21":-0.000291198701546823,"22":-0.00026866474912358413,"23":-0.00027531550418381177,"24":-0.0002703018046544952,"25":-0.00031847128542813807,"26":-0.00023222328429232415,"27":-0.00025482782111743626,"28":-0.00025627442366766185,"29":-0.00025612542650219175,"30":-0.00002880272150098929,"31":-0.0002450098253909861,"32":-0.00025584129075831497,"33":-0.0002704715923963574,"34":-0.00027817688725892257,"35":-0.000301022325988891,"36":-0.0001941651901881732,"37":-0.0002509678746570193}},{"sx":1,"sy":1,"depth":38,"w":{"0":-0.06692561191984996,"1":-0.1866084965795602,"2":0.34078998422617984,"3":0.2538261913962847,"4":0.024195086505855796,"5":0.15266016514002478,"6":0.13319486868105826,"7":-0.07810162134426392,"8":0.15525725934605525,"9":-0.6535688766950339,"10":0.1733071224451178,"11":0.18245888059658005,"12":-0.20276090336932334,"13":-0.16756618507142332,"14":0.36209050550589295,"15":0.8082676022566947,"16":-0.4099360831349041,"17":-0.4976373668399466,"18":0.14944604747768225,"19":0.023348930837061146,"20":-0.2537207214157311,"21":0.35371241398594067,"22":-0.050867574795737745,"23":-0.23422312857767122,"24":-0.12875569835458406,"25":-0.3840890107882681,"26":-0.7805620438558845,"27":0.09988028069116935,"28":0.3462562989275582,"29":0.23098726705092246,"30":-0.16606445922077523,"31":0.525323710726853,"32":0.15666203798752376,"33":-0.050439957080060945,"34":-0.4409645197157213,"35":0.217859675851405,"36":0.22471207125624532,"37":-0.6335685119233508}},{"sx":1,"sy":1,"depth":38,"w":{"0":-0.1341958963247297,"1":0.12199470004930416,"2":0.04994770503979669,"3":0.05661075096154941,"4":-0.20574481039052217,"5":0.046111578443222556,"6":-0.24679606227022413,"7":-0.013209705071531831,"8":-0.395966864224227,"9":-0.28546532505647354,"10":0.1961935357886637,"11":-0.12517404737974475,"12":-0.47294113950319405,"13":-0.23262302973210502,"14":0.02983258229230403,"15":-0.07674027898460019,"16":-0.1629688921689914,"17":-0.38186225826416503,"18":-0.07416019769366396,"19":0.4384455567989149,"20":-0.05584970584187563,"21":0.02543859718801118,"22":-0.10035436530540849,"23":0.11587412296113368,"24":0.14008583302508631,"25":-0.26817528825042286,"26":0.49950907668557476,"27":0.1967903639541319,"28":0.19518084820401055,"29":0.3231406841805599,"30":0.27615259040443296,"31":0.4526974006644099,"32":0.14287492772015076,"33":0.1404766047572282,"34":-0.289146148829396,"35":-0.371264568143492,"36":0.120036105398937,"37":-0.38446260494322965}},{"sx":1,"sy":1,"depth":38,"w":{"0":0.04545782286568666,"1":0.3352552333702907,"2":0.12713649255623927,"3":0.18494195613478123,"4":0.05087637081125608,"5":0.09584498012757771,"6":0.33799233029363224,"7":0.06290201604792652,"8":0.3043403815649822,"9":-0.06569519778737062,"10":-0.5409458994664037,"11":0.2858219362946407,"12":0.011960123330304403,"13":0.06305190305088754,"14":0.14076552120784266,"15":-0.021558408489222792,"16":0.016991178807674815,"17":-0.13791631288796408,"18":-0.03114493727341388,"19":-0.13912130857755425,"20":-0.134531616917286,"21":-0.19295787623735022,"22":-0.10268313328354711,"23":0.1397342457110858,"24":-0.15164550941895183,"25":-0.790425618096211,"26":0.43217719075984995,"27":-0.7069588623185383,"28":-0.5742591546105428,"29":-0.34243127473089413,"30":0.3087792224060187,"31":-0.2547349074221983,"32":0.4272996467714516,"33":0.22747750634946093,"34":-0.20179676002146638,"35":-0.01814090791052992,"36":-0.5201930970746412,"37":-0.19683418416637438}},{"sx":1,"sy":1,"depth":38,"w":{"0":-0.00001469226807037955,"1":-0.00000851687933531076,"2":-0.0000226855337494155,"3":-0.000005320964019925893,"4":-0.000009892074302091777,"5":-0.0000036351938860311674,"6":-0.000009893770019725246,"7":-0.000003113910579919298,"8":-0.00033397105793288507,"9":-0.00009519097661564476,"10":-0.000059648005281608134,"11":-0.00017829655972361215,"12":-0.0001918891636190126,"13":-0.00021312741680246813,"14":-0.0003111217353606271,"15":-0.00028195612029089143,"16":-0.00009666338841853542,"17":-0.00009637421484717076,"18":-0.00014650962000608344,"19":-0.0001162334328635996,"20":-0.00012388479721317993,"21":-0.00018595275020598332,"22":-0.00011082242637850214,"23":-0.00022074889091627673,"24":-0.00017435590902910119,"25":-0.00025066877275965163,"26":-0.00034254988392020026,"27":-0.00011419224233791159,"28":-0.00013678263496980295,"29":-0.00011723283828127373,"30":-0.000020920845480046004,"31":-0.0002239650909224122,"32":-0.000477498759892118,"33":-0.00032675981693761324,"34":-0.00011977177212037389,"35":-0.00016932040201305014,"36":-0.00006059603806808149,"37":-0.00009321347955004859}},{"sx":1,"sy":1,"depth":38,"w":{"0":-0.000016363702548543472,"1":0.00000882726183416204,"2":-0.00004449511717642519,"3":-0.000002511861321312562,"4":-0.00002257333781386067,"5":-0.000007255973320505756,"6":-0.000016207814815774263,"7":0.00000196083355462452,"8":-0.0003151393802264855,"9":-0.000038623527728403565,"10":-0.00012314324715925244,"11":-0.00028637074508550104,"12":-0.00024239344907360183,"13":-0.0003031059649142424,"14":-0.00046500962915509923,"15":-0.0004612951294849411,"16":-0.00015236882609391683,"17":-0.00005686506318769894,"18":-0.000400300857102576,"19":-0.00013621439676900131,"20":-0.00016723549735868156,"21":-0.0003091362225192096,"22":-0.00017961968052468045,"23":-0.00020853684240052932,"24":-0.00038267504393561005,"25":-0.0005691412954399185,"26":-0.0005360726293614849,"27":-0.00026207784958977504,"28":-0.00035922532303448053,"29":-0.000260141278590544,"30":-0.000008463250365153534,"31":0.000005151469568771257,"32":-0.0007117263438010345,"33":-0.0004982056850930841,"34":-0.00012732073969379655,"35":-0.0002843692482083794,"36":-0.00012003121980562673,"37":-0.000037894763148371835}},{"sx":1,"sy":1,"depth":38,"w":{"0":-0.23549018643153688,"1":-0.07926455646360005,"2":-0.4344359853728937,"3":-0.17198023701090678,"4":-0.07221048826520089,"5":-0.05499365086580631,"6":-0.45031163018647835,"7":-0.12100391209752322,"8":0.5269329203670715,"9":-0.503985645372472,"10":-0.5385578799660807,"11":0.3069594182115347,"12":0.44775589120402454,"13":0.3091782585647335,"14":0.4528954191054394,"15":0.2736061687982225,"16":-0.4310660830959835,"17":-0.42161077060685337,"18":-0.6126897055561791,"19":-0.38284700236280295,"20":0.25449836924423724,"21":0.0059074079575864614,"22":0.08293097398628367,"23":0.2268614814837727,"24":-0.8114914894740959,"25":0.40370638946280407,"26":-0.17043035813128574,"27":-0.8513350004376664,"28":-1.620480869541789,"29":-0.9364634647920035,"30":0.28829906873339517,"31":0.0856056494200663,"32":0.040894629602815855,"33":0.048218444804329935,"34":-0.27618044227873095,"35":0.3182018558103757,"36":-0.33046445885384407,"37":-0.3552027024237577}},{"sx":1,"sy":1,"depth":38,"w":{"0":-0.00041000667617909506,"1":-0.0005294490653138221,"2":-0.0008552666620486414,"3":-0.00022424396371265216,"4":-0.00026143090359759946,"5":-0.00004418931947235035,"6":-0.00041160574180676765,"7":-0.00023940582139862906,"8":-0.0041551662772477595,"9":-0.003198242227894792,"10":-0.002129261127532094,"11":-0.003576642467049388,"12":-0.003961148485132866,"13":-0.003986256486655175,"14":-0.003995383424723317,"15":-0.004371616569390237,"16":-0.00312807558473104,"17":-0.0032151108514602276,"18":-0.0034541709524664975,"19":-0.002807225765977404,"20":-0.003408922473515984,"21":-0.003582540783939745,"22":-0.0031399206052309995,"23":-0.0038110556692036233,"24":-0.003368161939525909,"25":-0.00439584372921709,"26":-0.0034411090272327698,"27":-0.0032036170166233322,"28":-0.003270418381586633,"29":-0.003232196940928793,"30":0.0006354893063343914,"31":-0.0040345229683881375,"32":-0.00408276552336799,"33":-0.00393114357839104,"34":-0.0034357804200503277,"35":-0.003678350802070245,"36":-0.002173959308799711,"37":-0.0031863925882630764}},{"sx":1,"sy":1,"depth":38,"w":{"0":-0.0000578269820950966,"1":-0.000031985911417768574,"2":-0.00004007743106385289,"3":-0.00002626617207471267,"4":-0.00003678559776942097,"5":-0.00002515728991271058,"6":-0.000033561737695375536,"7":-0.000015145044504496742,"8":-0.0002737199563885772,"9":-0.00015855799489332043,"10":-0.00012531839905031153,"11":-0.00016803913231374555,"12":-0.00016847950613744407,"13":-0.00019065040380374763,"14":-0.00019913999473906803,"15":-0.00019895916236955868,"16":-0.00016649678432347173,"17":-0.00014503648724624178,"18":-0.00019802420456457206,"19":-0.00015712420404137366,"20":-0.0001689653544766466,"21":-0.000160332601715981,"22":-0.0001511734726851153,"23":-0.00019061398297974335,"24":-0.0001986454440093356,"25":-0.00027108904475968074,"26":-0.0002870670405769973,"27":-0.00017739700632238213,"28":-0.0002024082340027245,"29":-0.00017772956303441394,"30":-0.0000639185393403983,"31":-0.00021503310717248394,"32":-0.0002955551494504039,"33":-0.00023397295406183704,"34":-0.00015686229050903866,"35":-0.00016824661084598216,"36":-0.0001249755081031483,"37":-0.00015841828401839896}},{"sx":1,"sy":1,"depth":38,"w":{"0":-0.0001047148979020308,"1":-0.00006884547673229276,"2":-0.00005817088193144474,"3":0.000003170964251119956,"4":-0.00006034288349113636,"5":-0.00005854868570442894,"6":-0.00008419588169651201,"7":-0.000022277156575237395,"8":-0.0004171679158052258,"9":-0.0002933540916550444,"10":-0.00019687938506253685,"11":-0.0003325452860803645,"12":-0.0003586031515017755,"13":-0.00038228853116302334,"14":-0.000502843585700093,"15":-0.0004749006440398079,"16":-0.0003002935019687293,"17":-0.00030501451552392063,"18":-0.000311497817517605,"19":-0.0002955527371921569,"20":-0.0002488880752953009,"21":-0.0003981438589683722,"22":-0.0002465594560364476,"23":-0.0003875825147457058,"24":-0.00032511612980792344,"25":-0.0004686827503765905,"26":-0.0005140527811210403,"27":-0.0002838087679713458,"28":-0.00028787833492951266,"29":-0.00028677292147517717,"30":-0.000060274929388101966,"31":-0.0003351822448636006,"32":-0.000715629016688459,"33":-0.000523667118957642,"34":-0.0003149092851763286,"35":-0.00032295207805140713,"36":-0.00019847450238650834,"37":-0.0002934922724038362}},{"sx":1,"sy":1,"depth":38,"w":{"0":-0.0003741497033989637,"1":-0.00026584220462968724,"2":-0.000352870935753265,"3":-0.00018088654998929171,"4":-0.00036003734789256703,"5":-0.00037724328553842345,"6":-0.00024490546405884096,"7":-0.00016143791827936957,"8":-0.0013234757223183884,"9":-0.0011308930950459904,"10":-0.0008498673248026798,"11":-0.0012342591159500808,"12":-0.001241117803931771,"13":-0.0012640470632900465,"14":-0.001315662166933108,"15":-0.0012719416755221436,"16":-0.00111781861393879,"17":-0.0011247643979107387,"18":-0.0012129738031147331,"19":-0.001273035448666903,"20":-0.001158715716316992,"21":-0.00123457716893528,"22":-0.0011316412690162688,"23":-0.001267502642619094,"24":-0.00121882208378061,"25":-0.001248025536067099,"26":-0.0013758838989183747,"27":-0.0011406706581763427,"28":-0.001164744355931786,"29":-0.0011464058526215821,"30":-0.00116165801931643,"31":-0.001195082419641597,"32":-0.0014053998593624877,"33":-0.0013300956304150135,"34":-0.0011522518079605392,"35":-0.0012262809434906005,"36":-0.0008755127472861738,"37":-0.0011272184054010714}},{"sx":1,"sy":1,"depth":38,"w":{"0":0.4969350958830057,"1":-0.606989604757807,"2":0.6126067919331146,"3":-0.8405749492089812,"4":-0.09547878513380426,"5":-0.227803494630596,"6":-0.08886511387302061,"7":-0.3565286768806894,"8":0.656561498097236,"9":-0.6653465711785695,"10":0.12067287747658756,"11":-0.07114804216799117,"12":0.2529135044081847,"13":0.3583647653050827,"14":0.14640353125197533,"15":0.26189816614115013,"16":-0.10257120761108005,"17":-0.40383125080815285,"18":-0.28480152271179626,"19":-0.47895695155343976,"20":-0.0423797568981854,"21":0.7342747678534093,"22":0.12004808106518135,"23":-0.5633387337782979,"24":0.4063950757856581,"25":0.727529006324855,"26":-0.7994993184658674,"27":-0.3966919401418986,"28":-0.22040926817110446,"29":-0.4480731233648365,"30":-0.46741188589451127,"31":-0.7586850323876956,"32":-0.016446581610449304,"33":0.29271996082043933,"34":-0.2179055315869185,"35":0.14124336250507813,"36":0.032037006195115215,"37":-0.6957946808514665}},{"sx":1,"sy":1,"depth":38,"w":{"0":-0.00003384022092332698,"1":-0.000022070474205625542,"2":-0.00002297161122915646,"3":-0.000029386235214422605,"4":-0.000024324400166258212,"5":-0.000028142197844350033,"6":-0.00001537780525666739,"7":-0.00003160930149257591,"8":-0.000661738142126531,"9":-0.00023675528154551895,"10":-0.00013174389361836846,"11":-0.0003773469422218749,"12":-0.0003447082450401974,"13":-0.0004016101756356653,"14":-0.0005991760421779981,"15":-0.0004086377518501762,"16":-0.00024282870599273067,"17":-0.00021807144098294145,"18":-0.00028919755541249994,"19":-0.00029380869105207077,"20":-0.0002791705110058733,"21":-0.0003899924311288141,"22":-0.0002237592758701796,"23":-0.00048647675614760634,"24":-0.00044743286230388416,"25":-0.00039170714822291185,"26":-0.0009207270221998907,"27":-0.00027204078667696167,"28":-0.0003428114128593839,"29":-0.0002798122170193871,"30":-0.00005991019184025529,"31":-0.0005368470380858533,"32":-0.0008496768252423634,"33":-0.0006754510593474072,"34":-0.00025208015037056004,"35":-0.0003145419419621003,"36":-0.00012259927660209343,"37":-0.0002355140120650786}}],"biases":{"sx":1,"sy":1,"depth":"32","w":{"0":0.06251903094636833,"1":0.23449880987409383,"2":0.08118902457994824,"3":0.07335279768284356,"4":0.0885863317119051,"5":0.420480065114842,"6":-1.4111060901839887,"7":0.06494414555131958,"8":0.06450835280912211,"9":-1.3828915754317253,"10":0.07629453416685833,"11":0.6276851969213421,"12":0.08290386351202148,"13":0.08608380592104115,"14":0.07942456012675282,"15":0.6384217436510017,"16":0.06946236425994722,"17":0.07233246355237134,"18":0.08930385319446209,"19":0.0786811310077786,"20":-0.3148701985558223,"21":-0.48029912104532385,"22":0.7846736312707062,"23":0.05515675196124731,"24":0.0768459275582659,"25":1.1096031083805995,"26":0.08940683503054885,"27":0.07016019380902691,"28":0.056986521414312125,"29":0.09593900862832011,"30":1.3610671622595343,"31":0.08207006357993156}}},{"out_depth":"32","out_sx":1,"out_sy":1,"layer_type":"relu"},{"out_depth":10,"out_sx":1,"out_sy":1,"layer_type":"fc","num_inputs":32,"l1_decay_mul":0,"l2_decay_mul":1,"filters":[{"sx":1,"sy":1,"depth":32,"w":{"0":0.0004270258537859462,"1":-1.362420327209614,"2":0.000025147970007471307,"3":0.001427006801676341,"4":-0.0012949927264139325,"5":-2.1452113581204544,"6":-2.4455065260554334,"7":0.00011216688820249312,"8":-0.0010786364478669954,"9":-2.5679245975733993,"10":-0.003631461188820562,"11":-1.5138476404037977,"12":-0.0005511607065547429,"13":0.0007978159836975058,"14":-0.00038011466927973675,"15":-2.172641727078238,"16":-0.0017207995307876413,"17":0.0008902617027392056,"18":-0.00012989158249897782,"19":0.0001331196807021829,"20":-1.9914920762932826,"21":-2.4341286445366186,"22":-1.7627495289463606,"23":-0.0004986625963603052,"24":0.0008076396449381341,"25":-0.6264137545438169,"26":-0.007046993749359409,"27":-0.00004416050250767617,"28":0.00013598712097903426,"29":0.000736038844481505,"30":-1.9132290203966689,"31":-0.00017898241825244562}},{"sx":1,"sy":1,"depth":32,"w":{"0":-0.000734470355016145,"1":-1.7856444207479027,"2":-0.0003031366188497372,"3":-0.0006407447990030308,"4":0.00130917804702666,"5":-2.0691825635751275,"6":-2.650801305919301,"7":-0.00009491797835770808,"8":-0.0016749639021539457,"9":-2.714501131792909,"10":0.0004961901331174434,"11":-1.8565379533847768,"12":-0.00018251884554311537,"13":-0.0007234227482791089,"14":-0.00045598661202246794,"15":-2.1662407580868974,"16":0.002412489440196891,"17":-0.00013814914520782985,"18":-0.00026332653987364967,"19":-0.00012767618281862058,"20":-2.074461806889538,"21":-2.3367104702597974,"22":-1.6617754731635805,"23":-0.00008800602962049486,"24":-0.0010961947486017457,"25":0.34235032851888436,"26":0.0011527275016399677,"27":-0.0004364054097061811,"28":-0.0010768751312163292,"29":0.0006645821470387015,"30":-1.7451556605527185,"31":-0.0003790331512568646}},{"sx":1,"sy":1,"depth":32,"w":{"0":-0.0022907359118467473,"1":-1.3507063138602355,"2":0.000040708035620477966,"3":-0.0006805101088776519,"4":0.002193068381434603,"5":-1.868300709752457,"6":-2.4371267691878526,"7":-0.00006049937499740715,"8":-0.00032515408486972407,"9":-2.652302618005702,"10":0.0012467488143638361,"11":-2.3379932221094033,"12":-0.00013378755952970792,"13":-0.00041985035583281464,"14":-0.00008637234520812598,"15":-2.695592928771702,"16":-0.0016836420232825217,"17":0.0007165542851174669,"18":0.0000654275457711729,"19":-0.0003369934456143605,"20":-2.403764910463384,"21":-2.1599309576038856,"22":-1.82694212867358,"23":-0.00019859833570874536,"24":-0.0007938234372370306,"25":-0.07501297586549302,"26":-0.006165997648590332,"27":0.000005396622668170877,"28":-0.00009546019823191778,"29":0.0008925845737505918,"30":-1.4302575465729117,"31":0.0001798739791715532}},{"sx":1,"sy":1,"depth":32,"w":{"0":0.0005489376284456829,"1":-1.4383456547783153,"2":-0.00017795967111503238,"3":-0.00024143565456345435,"4":-0.0013781211538730525,"5":-2.5726152915980487,"6":-2.320518629777719,"7":0.000024860952327068044,"8":0.0015276278228150944,"9":-2.3234502365640055,"10":-0.0025067059857868126,"11":-2.014714775719724,"12":0.0004318807080460515,"13":0.00008090591880630126,"14":0.00019935048775663984,"15":-3.167507308642239,"16":-0.00042844124498073893,"17":0.00012762950524584582,"18":-0.0001936515660357133,"19":-0.00021435722582624882,"20":-2.2800823719822185,"21":-2.3565481527347516,"22":-1.6082162199400878,"23":-0.00005992756831811051,"24":-0.0010576870912227614,"25":-0.11679390270201384,"26":0.006225813757470794,"27":-0.00009644204000806711,"28":-0.00009779286877098682,"29":-0.0001157977594710746,"30":-2.2564458893691577,"31":-0.000012372858676649398}},{"sx":1,"sy":1,"depth":32,"w":{"0":-0.0013063537112158856,"1":-1.8677136115453008,"2":-0.0002181463321279823,"3":-0.0001417708426249031,"4":-0.005750870088027641,"5":-2.5999033653050887,"6":-2.2467309154660993,"7":-0.00008769320818873478,"8":-0.0006008973456184299,"9":-2.4690864479949832,"10":-0.004146758477791134,"11":-2.0124586217917786,"12":-0.000017284219014137917,"13":-0.00028238783324438814,"14":-0.00006115122792554675,"15":-2.7851301611460504,"16":-0.0003644908106434009,"17":0.0006947358368349911,"18":-0.000008507555726566376,"19":-0.0004636291340710637,"20":-2.277387411155464,"21":-2.290313877195453,"22":-2.4596816874928487,"23":-0.00017923441748589317,"24":-0.0015553296980245262,"25":-0.2205785685014313,"26":-0.006893838124860808,"27":0.0000013871371742723814,"28":-0.0004250578446081314,"29":-0.000571166876528093,"30":-1.8101438957444056,"31":-0.00004069443875718721}},{"sx":1,"sy":1,"depth":32,"w":{"0":0.0009675667725581799,"1":-1.640958395859239,"2":-0.0004108790737790629,"3":-0.000527628202858197,"4":0.0025951299892907624,"5":-1.8306974873032456,"6":-2.1169438430353664,"7":0.0002505913808119832,"8":0.0011095700470329774,"9":-2.6859012065703927,"10":-0.0025816061540502116,"11":-2.3449124267684827,"12":-0.00006460207554285702,"13":0.0004613475668255674,"14":-0.0003115306665097293,"15":-2.4272679002036117,"16":-0.0017680271573019776,"17":-0.0005993803007337446,"18":-0.0001335982559099922,"19":-0.0009344580768467527,"20":-1.9288555256724735,"21":-2.8280810413294866,"22":-2.28915672304402,"23":-0.0002735396096726898,"24":0.000044843773185358624,"25":-0.12037267106711912,"26":0.003433544482578394,"27":-0.00032413416957481,"28":-0.00021784500854307693,"29":-0.0002262353933189352,"30":-1.7158222944438821,"31":0.00026067315111560733}},{"sx":1,"sy":1,"depth":32,"w":{"0":-0.0017538343977566279,"1":-1.594478062399356,"2":-0.00009668072398246972,"3":-0.0016263993084221144,"4":-0.0021888732302813374,"5":-2.0980590403388355,"6":-2.517225989338489,"7":-0.00012195309268387689,"8":-0.0007897023252577723,"9":-3.006979326062887,"10":0.0035384299103078396,"11":-1.3789019294790177,"12":0.000011965114126827666,"13":-0.0002483561240008321,"14":0.0004235672826217625,"15":-2.235775313826911,"16":0.0014731414753530094,"17":-0.000014065527920390192,"18":-0.00010926387516322883,"19":0.00038504742122157304,"20":-1.9032833105063878,"21":-2.0823376642430205,"22":-1.3775226092293253,"23":-0.000025474946392827513,"24":-0.000039782311458807434,"25":-0.6796450693755961,"26":-0.0014897099588074229,"27":-0.00016493040141978314,"28":0.00026701468472283,"29":0.0002887825346877535,"30":-1.4020032153179567,"31":-0.000019570078191638305}},{"sx":1,"sy":1,"depth":32,"w":{"0":0.0004436879636228886,"1":-1.6437048103969694,"2":-0.00020364682075174975,"3":-0.0003193005925671573,"4":0.0012034145960794253,"5":-2.0157972341180312,"6":-2.58479649848117,"7":-0.000051947215204928485,"8":-0.0009025834232664117,"9":-2.335036256954646,"10":0.0013838925208981975,"11":-2.3085337119672755,"12":-0.00020018900987940226,"13":-0.00037242610708725234,"14":0.0003006766282773399,"15":-2.6556229281474817,"16":0.001981528298348352,"17":-0.0005280245045164307,"18":0.00019854038085914685,"19":-0.0004255911617201215,"20":-2.010503892731882,"21":-2.555888096236373,"22":-2.0055266868896306,"23":0.0006125095198469405,"24":0.0017066767993832205,"25":-0.41880927290349135,"26":-0.0007097802108537969,"27":-0.00026356273257456515,"28":0.00008737224255562926,"29":-0.0013600610786095213,"30":-1.716326902405972,"31":-0.0001232718065541056}},{"sx":1,"sy":1,"depth":32,"w":{"0":-0.0003953685730192337,"1":-1.3369374905842133,"2":-0.00009892012505771155,"3":-0.0011124462732611227,"4":-0.004837235639528252,"5":-1.9349363470917733,"6":-2.889589163257778,"7":0.00017135512037847928,"8":-0.00011228466650156901,"9":-2.6319359060167615,"10":-0.00011160165940829455,"11":-1.2446379160341747,"12":-0.0002110141835875605,"13":-0.0006106148033236522,"14":-0.00024473626104393095,"15":-1.9963812514769024,"16":-0.00037564563100207023,"17":-0.0004631537639019493,"18":0.00009908386578403264,"19":-0.00010203859825783333,"20":-2.25239837172888,"21":-2.6855064950216234,"22":-1.9600545898172779,"23":0.0003891199067212448,"24":-0.0018955433026459547,"25":-0.10862897789548306,"26":-0.0015838340672338187,"27":0.00017134510106343783,"28":0.0002688110621826628,"29":-0.0003756761102851331,"30":-2.5074037973375933,"31":-0.00034164133097147766}},{"sx":1,"sy":1,"depth":32,"w":{"0":0.0007182979462961789,"1":-1.8774018541596325,"2":0.00015518367619183482,"3":0.0015723849977599062,"4":-0.00020617699667295074,"5":-2.4043968910589073,"6":-2.2900545652834015,"7":-0.00019717803027518002,"8":0.0017284469013308683,"9":-2.4938918102755707,"10":0.000013600567693736209,"11":-2.303856681562478,"12":0.00017306488327508877,"13":0.0004482969137921062,"14":0.00018523822199329127,"15":-2.7690894929033214,"16":-0.0004912232491068589,"17":-0.000578885118284157,"18":-0.00006359136033455906,"19":0.00021313785130714773,"20":-2.1888234843300953,"21":-2.3179806500649756,"22":-2.151426321558161,"23":0.000008689656748910915,"24":-0.00003570891298136824,"25":-0.16333366261212007,"26":0.0015812358271542046,"27":0.00009082855981411122,"28":-0.00043816434812473905,"29":-0.0010583260611115213,"30":-1.7034868069815425,"31":-0.00013449760743819254}}],"biases":{"sx":1,"sy":1,"depth":10,"w":{"0":-0.8659968132991656,"1":-0.9924368540413534,"2":-1.851724033301634,"3":-4.4555585543449885,"4":-2.7174723087913475,"5":-2.8884272439124845,"6":-4.612045699145259,"7":-2.2398294644725762,"8":-4.1232401974831046,"9":-1.924444124706559}}},{"out_depth":10,"out_sx":1,"out_sy":1,"layer_type":"softmax","num_inputs":10}]}