{"layers":[{"out_depth":20,"out_sx":1,"out_sy":1,"layer_type":"input"},{"out_depth":20,"out_sx":1,"out_sy":1,"layer_type":"fc","num_inputs":20,"l1_decay_mul":0,"l2_decay_mul":1,"filters":[{"sx":1,"sy":1,"depth":20,"w":{"0":0.07944053561609243,"1":0.07580201637213746,"2":0.07176469900455866,"3":0.0732332932011529,"4":0.07324604226376151,"5":0.07099178110677995,"6":0.06084240183512579,"7":0.05941877571863738,"8":0.1648832997414268,"9":0.11027489637368754,"10":0.09195548009440356,"11":0.1408001056133474,"12":0.10899326487708336,"13":0.05182063694941479,"14":0.19912569176235104,"15":0.18233480095968463,"16":0.11832497390809818,"17":0.12958595201133666,"18":0.09151738881832552,"19":0.10766970640821787}},{"sx":1,"sy":1,"depth":20,"w":{"0":-0.03340501106925677,"1":0.010074326953745891,"2":-0.036452424005476304,"3":-0.024872603303538243,"4":-0.008395025999191142,"5":-0.020471573025622792,"6":0.009252591579541957,"7":-0.001914886712322151,"8":0.03849751593197309,"9":0.004645798786313474,"10":-0.03176622298881173,"11":-0.017362661613521235,"12":0.00656413791044559,"13":0.07021302412067892,"14":-0.01763671153765859,"15":-0.01994239084913505,"16":-0.013788938894249309,"17":-0.010077461095186221,"18":-0.029895432923513435,"19":0.004409036107781976}},{"sx":1,"sy":1,"depth":20,"w":{"0":0.004633645004659911,"1":-0.01708194165327304,"2":-0.027328637122231384,"3":-0.005504320754685685,"4":0.0024034490268792313,"5":0.010800140004940645,"6":-0.022602823396023996,"7":-0.01905247261794184,"8":-0.017113958690266724,"9":0.0026861075073590264,"10":-0.005071535831488053,"11":-0.007640077877084258,"12":0.0006340364429638318,"13":0.014411516812530776,"14":-0.010274376952062689,"15":-0.005626776554168572,"16":0.004936264752794611,"17":-0.007790980632094412,"18":-0.005131240126679466,"19":0.002893392902159763}},{"sx":1,"sy":1,"depth":20,"w":{"0":-0.013014116392318757,"1":-0.008460833363233609,"2":-0.032394519818226566,"3":-0.015949482802351707,"4":0.0062956332177401,"5":0.008335764899832947,"6":-0.005749330453527106,"7":-0.003322247006757775,"8":-0.0018345412326417863,"9":-0.01612178084295656,"10":-0.001475573475750953,"11":0.002584593862147727,"12":0.0006595298838645646,"13":0.01649623643948215,"14":-0.004618859422462912,"15":0.004419981175537226,"16":-0.02016042303577297,"17":-0.011322088965196252,"18":-0.00882839442886685,"19":-0.009949291112510777}},{"sx":1,"sy":1,"depth":20,"w":{"0":-0.008589488648871367,"1":-0.0010387679671675805,"2":-0.007835300820620431,"3":-0.0022335499125574663,"4":-0.003874794244670181,"5":-0.0034432163871906864,"6":-0.0005893641128893889,"7":0.00076844925532867,"8":-0.0014297271815691523,"9":0.0020856601917867384,"10":-0.011261326604026317,"11":-0.006601855804914418,"12":-0.004915028833428299,"13":0.0000894716269851162,"14":-0.007446814349262428,"15":-0.007206056235442556,"16":-0.002665994640946098,"17":-0.006412590377314334,"18":-0.010643323384705505,"19":0.001773952546854424}},{"sx":1,"sy":1,"depth":20,"w":{"0":-0.000493077056548242,"1":-0.00023790186005496114,"2":-0.0034159900428470643,"3":0.0006193527596994413,"4":0.0005805830457585162,"5":0.0011325010896187124,"6":-0.0018643100762808053,"7":-0.0015513380209639864,"8":-0.002115679299061048,"9":0.00029274032659167687,"10":-0.0019016029643507818,"11":-0.0013505211900377663,"12":-0.001127729477570995,"13":0.0012043782218038536,"14":-0.001437303475803763,"15":-0.0016039284331603651,"16":0.0007546281842657419,"17":-0.0003422099574435354,"18":-0.0020392231835813855,"19":0.0004910460583888351}},{"sx":1,"sy":1,"depth":20,"w":{"0":0.0525770226425028,"1":-0.09783765183428522,"2":-0.03063853350296603,"3":-0.03109656159388199,"4":-0.035330236039008145,"5":0.006861388277452059,"6":-0.06441746624078094,"7":-0.08967698457300508,"8":-0.015933765164109694,"9":-0.06283643718264753,"10":-0.009020135741391289,"11":0.007328104731590294,"12":-0.06055853875905611,"13":0.007430904994337761,"14":0.015804035390644962,"15":0.017659991793501504,"16":-0.026113297564018083,"17":0.0077113703322655705,"18":-0.01410208751255887,"19":-0.060918108592506216}},{"sx":1,"sy":1,"depth":20,"w":{"0":-0.0011613052736892343,"1":0.0005091515812858839,"2":0.0007990772434200622,"3":-0.001422607778554224,"4":0.00048544190723750054,"5":-0.0008912779073781422,"6":-0.0016267114537773452,"7":-0.0012268013234053637,"8":0.00030362718148221695,"9":-0.0016054590916704966,"10":0.001165362006511758,"11":-0.00022592099431600784,"12":0.0009971121190174485,"13":-0.0011631220984590373,"14":-0.00021383390544452423,"15":-0.0037483697887969,"16":-0.0009400604564316403,"17":0.0018343809537385426,"18":0.00013826505646307433,"19":-0.0030490762955791314}},{"sx":1,"sy":1,"depth":20,"w":{"0":0.025918445574389937,"1":-0.10448358201517315,"2":-0.09666098983258826,"3":-0.16060447015055163,"4":0.11473942748430757,"5":0.14772992418282585,"6":0.03447395441779469,"7":-0.1393431568883304,"8":-0.051811988518552024,"9":-0.125360390660347,"10":-0.030727403429440484,"11":0.019483504642649325,"12":0.09132567707984864,"13":0.21129969334738555,"14":0.013397923378258365,"15":0.03261910314318812,"16":-0.09161494209301478,"17":-0.019445667847771374,"18":-0.041689502568002794,"19":-0.13787358751238785}},{"sx":1,"sy":1,"depth":20,"w":{"0":-0.00023424686199980492,"1":-0.00011241984653459143,"2":-0.0002719788989386304,"3":-0.00020233041269386684,"4":-0.00012196118382893986,"5":-0.00011419117848917562,"6":-0.00025013977137188333,"7":0.00001837054250094251,"8":-0.001861327963478169,"9":-0.0010018015667370304,"10":-0.000620944984120908,"11":-0.0014706123971013742,"12":-0.0012462307936446286,"13":0.00012828971866502914,"14":-0.0019378577549739686,"15":-0.0017340874982811677,"16":-0.0010629593408112068,"17":-0.0015133764266608968,"18":-0.0007571020093142604,"19":-0.0010294019207123981}},{"sx":1,"sy":1,"depth":20,"w":{"0":-0.0020838917987137176,"1":-0.00231594623203655,"2":-0.0026112169744555436,"3":-0.002147527952561741,"4":-0.0024203681794287618,"5":-0.0015201246369625954,"6":-0.0025632419045502884,"7":-0.001440616277584186,"8":-0.0003514421924087606,"9":-0.001906404899561182,"10":-0.0017712746356675583,"11":-0.00038205478668125583,"12":-0.001465344932815933,"13":-0.0023552773086118785,"14":0.0005236072146677719,"15":0.0002235670185440677,"16":-0.000960083420236952,"17":-0.0006657649078330346,"18":-0.0015858501425859727,"19":-0.0017404706183859063}},{"sx":1,"sy":1,"depth":20,"w":{"0":-0.0015581059079109168,"1":0.0017686321896574326,"2":-0.020702472466634668,"3":0.00514122020815518,"4":0.001825953086652379,"5":0.013181563515201628,"6":-0.009749190503859806,"7":-0.0004460634762805932,"8":-0.013837762186649264,"9":0.01456242006725013,"10":-0.012695696714973219,"11":-0.006468181783548892,"12":-0.00009812133970466231,"13":0.01616277660179281,"14":-0.00869954969899136,"15":-0.005403531855648505,"16":0.010451264593072038,"17":-0.0034356030878975314,"18":-0.0117160393458187,"19":0.017040986722916193}},{"sx":1,"sy":1,"depth":20,"w":{"0":0.00023010764062532306,"1":-0.0005226048231960982,"2":0.00030767126702753276,"3":-0.00014457262859847884,"4":-0.00038095411277062354,"5":0.0007479621707960314,"6":-0.00046694925917632274,"7":-0.0005042993084059722,"8":-0.0005762200014231335,"9":0.0005055051051041366,"10":-0.0003856527119794751,"11":-0.0008057071924619209,"12":-0.0005228320205430076,"13":0.00145320926458538,"14":-0.000597301146246023,"15":0.0006230553464086012,"16":0.0008507416919808433,"17":-0.0007559834349546217,"18":-0.0009569378635603206,"19":0.0012132801943315348}},{"sx":1,"sy":1,"depth":20,"w":{"0":0.000079750608877389,"1":0.00004303150091489448,"2":-0.00025986082639278124,"3":-0.00007770339965800147,"4":-0.00014278225162241728,"5":0.00003388971201141215,"6":-0.00008412283231516197,"7":-0.00009823895978578553,"8":-0.0011645269289161705,"9":-0.0005445621090557863,"10":-0.00011158838279497057,"11":-0.0009291674941714154,"12":-0.000713061872493621,"13":-0.00005165873533008429,"14":-0.0012663767016483421,"15":-0.0012116351349316533,"16":-0.0008187996750760401,"17":-0.0008936815805981387,"18":-0.0001796130007293419,"19":-0.0005228445048882652}},{"sx":1,"sy":1,"depth":20,"w":{"0":-0.0016018221108210847,"1":-0.0014723486628302326,"2":-0.0018361431981973942,"3":-0.0014389348573281794,"4":-0.0018166120850843898,"5":-0.0016439969877696614,"6":-0.0013681381851322377,"7":-0.0004951824246928486,"8":-0.004019955968083315,"9":-0.0017602203849466996,"10":-0.002336460253216834,"11":-0.0026616118751957127,"12":-0.0025873991484385225,"13":-0.0015377315712498557,"14":-0.0032885133162152457,"15":-0.0028204173740871315,"16":-0.001987427020657513,"17":-0.0030694562206221862,"18":-0.0022996921018965,"19":-0.001309295958251493}},{"sx":1,"sy":1,"depth":20,"w":{"0":-0.00018303762249857107,"1":-0.0002938191029768421,"2":-0.0001244796932301146,"3":-0.00024489770112868115,"4":0.00007117742754286037,"5":-0.00011275162578277107,"6":-0.0001567620875587207,"7":0.00005205328846312947,"8":-0.0017286632721517188,"9":-0.00070345766976615,"10":-0.00024288289364182597,"11":-0.0010759431062943396,"12":-0.0006963135724568848,"13":-0.00022974302854981675,"14":-0.002542616427383517,"15":-0.0018496369189887599,"16":-0.0008205472605612448,"17":-0.0012588889082363703,"18":-0.0005638882237923529,"19":-0.0006299121631820853}},{"sx":1,"sy":1,"depth":20,"w":{"0":-0.0008651057558230438,"1":-0.00016433217351224098,"2":-0.0006797734495211613,"3":0.0005238570426950004,"4":-0.0009286850190012696,"5":-0.00018402584916733287,"6":-0.0011441335520107213,"7":0.0009463428623693211,"8":0.000035220394534465114,"9":-0.00009654287271409963,"10":-0.0006241721940576899,"11":-0.0005570496219656127,"12":-0.0005757471500060649,"13":-0.00021352049473534295,"14":0.0008601341823609242,"15":-0.0006652520705818878,"16":-0.0005215176034069571,"17":0.0002513622850801886,"18":-0.0003511770103462293,"19":0.0000033272693887432653}},{"sx":1,"sy":1,"depth":20,"w":{"0":0.028542221222073574,"1":-0.06403218118441914,"2":-0.022954485436628348,"3":-0.02883341879833946,"4":0.01321211032910869,"5":0.003956632478141228,"6":-0.0206513715379666,"7":-0.05806707052861927,"8":-0.019987021803948065,"9":-0.008054800740353347,"10":-0.014617195639387324,"11":-0.006173537978909618,"12":-0.003473633351937533,"13":0.09737460334495224,"14":-0.0009836421635715917,"15":0.0023106883718232362,"16":0.0006090430245066794,"17":-0.009980883292064412,"18":-0.020096627568117507,"19":-0.007750515880197569}},{"sx":1,"sy":1,"depth":20,"w":{"0":-0.0003133347356060725,"1":-0.0006832821093541464,"2":0.000046269177248029534,"3":-0.0003180468727373899,"4":-0.00009719394167753664,"5":0.00003187251107859046,"6":-0.000460442573127682,"7":-0.0004108116366774941,"8":0.0002541257343927536,"9":-0.00006468383246758246,"10":-0.0003740416798653785,"11":-0.00046086204089232943,"12":-0.000484334834499257,"13":-0.00002091754301996399,"14":0.00025165697209857054,"15":-0.0002658080952188983,"16":-0.00007781603746704248,"17":-0.00007575132978440191,"18":0.00005645425503948947,"19":-0.00022243544620001698}},{"sx":1,"sy":1,"depth":20,"w":{"0":-0.0012870966746109465,"1":-0.0013359394549248215,"2":-0.0009651439744112712,"3":-0.000708848508536534,"4":-0.0010541428296793438,"5":-0.0012165256455031342,"6":-0.0008491768293706878,"7":-0.0007708662811832476,"8":-0.0030570538080917876,"9":-0.0018265449402750638,"10":-0.0017969029680757766,"11":-0.0026192012990512658,"12":-0.0023861643846625597,"13":-0.001133055395303325,"14":-0.0037022437719656303,"15":-0.0032178147966352502,"16":-0.0022477325484409815,"17":-0.002357726541299536,"18":-0.0016517603679555596,"19":-0.0017835659485381675}}],"biases":{"sx":1,"sy":1,"depth":20,"w":{"0":0.17873902830014585,"1":0.08378227257472845,"2":0.08508867719514786,"3":-0.018116979228030735,"4":0.09052872142456941,"5":0.08109661472796248,"6":0.04312300323550052,"7":0.0483039235561396,"8":0.09557754560591568,"9":0.09958201271316379,"10":0.04910943781253531,"11":0.037596424265709194,"12":0.005257877748741063,"13":0.09936308547304078,"14":0.07770051755401736,"15":0.0995109653282047,"16":-0.09108750291775247,"17":0.07140212610909463,"18":-0.04880396599981032,"19":0.08887754879985446}}},{"out_depth":20,"out_sx":1,"out_sy":1,"layer_type":"relu"},{"out_depth":10,"out_sx":1,"out_sy":1,"layer_type":"fc","num_inputs":20,"l1_decay_mul":0,"l2_decay_mul":1,"filters":[{"sx":1,"sy":1,"depth":20,"w":{"0":-0.157422648162635,"1":-0.05238733457886532,"2":-0.06137417251455008,"3":-0.04373980178778046,"4":-0.020391097599678918,"5":-0.004870721833775858,"6":-0.08686608502955315,"7":-0.0009029992013718681,"8":-0.39265885315664617,"9":0.0003551705821278675,"10":0.0008198067146947297,"11":-0.060533953056873285,"12":-0.0009067841102057668,"13":-0.00021973043441901832,"14":0.0002067919542967313,"15":-0.0013813785600285248,"16":0.00018237519524543237,"17":-0.06716857969869763,"18":-0.0002804655341075854,"19":0.00026038759020190693}},{"sx":1,"sy":1,"depth":20,"w":{"0":-0.31088700100962013,"1":-0.10415563082814369,"2":-0.09737073839246924,"3":-0.07301712309684659,"4":-0.03369633625671137,"5":-0.01753498871913781,"6":-0.1951206342500079,"7":-0.006735039392360976,"8":-0.7022729577081398,"9":-0.001833168900834693,"10":-0.0003348423145499299,"11":-0.13085405019399893,"12":-0.0015229839531837575,"13":-0.000008976853795388649,"14":-0.0024060709582069623,"15":0.00023307714148820144,"16":-0.0021423603581185616,"17":-0.23651801085173638,"18":-0.000053228536649586734,"19":-0.0011894766951074801}},{"sx":1,"sy":1,"depth":20,"w":{"0":0.0966231636158349,"1":-0.124297931677124,"2":-0.11547698494037041,"3":0.01155199011602091,"4":-0.03348441941953012,"5":-0.015367985083621463,"6":0.055107965427769634,"7":-0.004196751999154727,"8":-0.6347639229473266,"9":-0.0012016455805349785,"10":0.000001598298521463943,"11":-0.12582724426448297,"12":-0.0030726609405456796,"13":-0.00024759255220730103,"14":-0.001374850396394518,"15":0.00006770576571614898,"16":-0.002623247257846502,"17":-0.22799662237298313,"18":-0.0005190145193761174,"19":-0.00024525392724834453}},{"sx":1,"sy":1,"depth":20,"w":{"0":-0.27122566480079807,"1":-0.10780468778820639,"2":-0.09511429189907514,"3":-0.027048811480133234,"4":-0.030889209582515332,"5":-0.014755995707817873,"6":-0.17020961625043043,"7":-0.006731877527923258,"8":-0.04173552769015601,"9":-0.0010247926646595534,"10":0.00014203940100491482,"11":-0.11197214733363686,"12":-0.002262319008888823,"13":0.000035632597446241954,"14":-0.0023824024461197822,"15":0.00003896189192965252,"16":-0.0030558903551753495,"17":-0.21981207320215806,"18":0.0002536424193531336,"19":-0.0017153779928438162}},{"sx":1,"sy":1,"depth":20,"w":{"0":-0.2991371395006661,"1":-0.10804695069989709,"2":-0.11587869493473713,"3":-0.07604282557662895,"4":-0.03218311995905196,"5":-0.016205079968157867,"6":-0.1807344776999496,"7":-0.0054922373912587785,"8":-0.6835033774006996,"9":-0.0017348816491612436,"10":-0.00040512088502515974,"11":-0.12564035717078123,"12":-0.0016950501694733234,"13":0.00011773936051821056,"14":0.0007749198328702557,"15":0.000048697088716615385,"16":-0.0028086845664512133,"17":-0.2371142376363112,"18":-0.0002796883757050989,"19":-0.0009880790786248397}},{"sx":1,"sy":1,"depth":20,"w":{"0":-0.3215586046433665,"1":0.026555722856412996,"2":-0.12991436217118812,"3":-0.0852032426580068,"4":-0.035020375181664835,"5":-0.01648457950492607,"6":-0.1995709944848145,"7":-0.0033493144263547036,"8":-0.7142271179690025,"9":-0.00224315055666705,"10":-0.00016314648926021134,"11":-0.14210670094688455,"12":-0.0025177733921762043,"13":-0.00002734335543306667,"14":-0.00510881624439287,"15":-0.00008079094625777734,"16":-0.0032282405188883354,"17":-0.25028578556994663,"18":-0.00010681364059429545,"19":-0.0013131510474211038}},{"sx":1,"sy":1,"depth":20,"w":{"0":-0.3333299955603227,"1":-0.11787785737320058,"2":-0.10192421457860242,"3":-0.07975644504871049,"4":-0.03421175581379598,"5":-0.016889042922823456,"6":-0.18554649774375864,"7":-0.004381581265304056,"8":-0.7319243162495391,"9":-0.002269303457826944,"10":-0.00023444897347267343,"11":-0.13922614157245672,"12":-0.00018406224008417623,"13":0.0000739742013863118,"14":-0.0035883861760883343,"15":-0.00001393849770440642,"16":-0.0016332330693229371,"17":0.06475045768342466,"18":0.00003825127807352192,"19":-0.0015983074655169748}},{"sx":1,"sy":1,"depth":20,"w":{"0":-0.30285985973938206,"1":-0.10389269693845501,"2":0.009165814828991987,"3":-0.07081716871436326,"4":-0.03104370037765343,"5":-0.016911556110665225,"6":-0.15578096886934842,"7":-0.0047230256456775675,"8":-0.6889744796293091,"9":-0.0005494960339868198,"10":-0.00016926134086438512,"11":-0.11936335065889711,"12":-0.0016520814291891618,"13":-0.000010325264229128003,"14":-0.0020988331390303953,"15":0.00004289362513078254,"16":-0.0011394746629094174,"17":-0.204674811491393,"18":-0.00008901605997850291,"19":-0.0008950445422137015}},{"sx":1,"sy":1,"depth":20,"w":{"0":-0.3040789224561642,"1":-0.10584984476825897,"2":-0.1112514583395376,"3":-0.07242984845891112,"4":0.008155882729224654,"5":-0.004447208124280536,"6":-0.1590403899190963,"7":-0.00762428296002144,"8":-0.6928858760511504,"9":0.0024979415086045743,"10":-0.00017028451472962861,"11":-0.0257425047446317,"12":-0.0021176248517118133,"13":0.0003219132089198932,"14":-0.002095880236487096,"15":-0.00021496863991134663,"16":-0.002079592465184528,"17":-0.24717938999202158,"18":-0.0002386818954580398,"19":-0.0010038126081980633}},{"sx":1,"sy":1,"depth":20,"w":{"0":-0.2693664362661989,"1":-0.10768069319724016,"2":-0.10003438956159856,"3":-0.07359773743526833,"4":-0.030051247230560484,"5":0.004327193723394285,"6":-0.16363679164731085,"7":-0.006826282092390541,"8":-0.1730540014816832,"9":-0.0008333624307721108,"10":-0.001242445517038955,"11":0.040154658661937966,"12":-0.0025225923370128275,"13":-0.00001905137567633727,"14":-0.0024142662524510154,"15":0.001252488610625786,"16":-0.00094088478992567,"17":-0.21578583756151093,"18":-0.00007279105467853981,"19":-0.0008660875071948913}}],"biases":{"sx":1,"sy":1,"depth":10,"w":{"0":-6.0321358472675115,"1":-10.72252667458352,"2":-11.045811747886958,"3":-11.173457629824693,"4":-10.995722516251613,"5":-10.572988113734198,"6":-10.160677549614547,"7":-10.912490184840472,"8":-10.881949549406007,"9":-11.508110648030955}}},{"out_depth":10,"out_sx":1,"out_sy":1,"layer_type":"softmax","num_inputs":10}]}