{"layers":[{"out_depth":20,"out_sx":1,"out_sy":1,"layer_type":"input"},{"out_depth":20,"out_sx":1,"out_sy":1,"layer_type":"fc","num_inputs":20,"l1_decay_mul":0,"l2_decay_mul":1,"filters":[{"sx":1,"sy":1,"depth":20,"w":{"0":-0.2678842043525288,"1":0.5136884619440585,"2":0.0370448823323092,"3":0.16484582496128367,"4":-0.5001636150858888,"5":-0.5612252317278051,"6":-0.019890566206415515,"7":0.7498800212590659,"8":0.2934114386613677,"9":-0.00548086064484922,"10":-0.5344463062710864,"11":0.3202605133222448,"12":0.9178297157369886,"13":-0.5109838494991089,"14":0.02449524533989391,"15":-0.2025892362945711,"16":-0.7372247721257162,"17":-0.045603443875157926,"18":-0.24786308753493433,"19":-0.4980693860619159}},{"sx":1,"sy":1,"depth":20,"w":{"0":1.1319104298710538,"1":-0.6500045158936631,"2":0.24760318119545743,"3":-1.1015586365584298,"4":-0.4213166893657085,"5":-0.13098858663450913,"6":-0.398492393955626,"7":-1.3062654175116362,"8":-0.18179784114879108,"9":-0.48325921529374205,"10":0.38396052933116587,"11":0.11169106726063648,"12":-0.011603254638624102,"13":-0.060242946231844154,"14":0.40778289371323645,"15":-0.007827587470360055,"16":0.16112440815913645,"17":-0.3791044102938506,"18":0.29184850106588145,"19":-0.6320146782080603}},{"sx":1,"sy":1,"depth":20,"w":{"0":0.5203291237648348,"1":-0.19109556112920695,"2":0.6489030745792921,"3":-1.1436292833283708,"4":-0.04090702562562321,"5":-0.9076541912431645,"6":0.004221805650365416,"7":-1.2392461031035789,"8":-0.06572796066144002,"9":0.19111784633761222,"10":0.34526783907496716,"11":0.08458657348226303,"12":0.24040138543840592,"13":-0.2535211648307701,"14":-0.33853510288344496,"15":0.4035813571873992,"16":0.4034878236436476,"17":-0.45969418575404014,"18":0.22270716490821277,"19":0.5621080578694949}},{"sx":1,"sy":1,"depth":20,"w":{"0":0.051663940982521056,"1":0.2912587589002427,"2":-0.514383252049833,"3":-0.3860365807290568,"4":0.3783228418709923,"5":0.08040226897812745,"6":0.05872011595585412,"7":-0.23077406616690335,"8":-0.4889638074621331,"9":0.23823835307424573,"10":-0.008281201589746367,"11":0.2431517083400346,"12":0.1308843444218933,"13":-0.1085525484606884,"14":0.09715793367506048,"15":0.45848796444348655,"16":-0.3252524802467517,"17":-0.3933113284909117,"18":-0.4104756912537971,"19":0.04520070749767865}},{"sx":1,"sy":1,"depth":20,"w":{"0":-0.00017588325140170286,"1":-0.00013632856765839434,"2":-0.00017574133650355886,"3":-0.00009672830510697556,"4":-0.00011868518790814698,"5":-0.00007849295974197351,"6":-0.00011091445886646945,"7":-0.000045238519173313576,"8":-0.00125005307170221,"9":-0.0004225582216419296,"10":-0.00028350404056688635,"11":-0.0007086848353220088,"12":-0.00044979680986069074,"13":-0.00016871068518635826,"14":-0.0015535405198046676,"15":-0.001057250730775417,"16":-0.0005098249640867005,"17":-0.0007827459821268832,"18":-0.0002922168034954911,"19":-0.0004341619039019875}},{"sx":1,"sy":1,"depth":20,"w":{"0":-0.9792872104189466,"1":0.1377037946373153,"2":0.8907610225803329,"3":0.567165157717166,"4":0.22306254781194976,"5":-0.18359476988419285,"6":0.7000595804212939,"7":0.7321074337208505,"8":-0.5066330873212559,"9":-0.27223249353533285,"10":0.192286764319024,"11":-0.023664551151315376,"12":0.4627227655788607,"13":-0.5764435337408884,"14":0.3985826018116185,"15":-0.28790402140180443,"16":0.1204964389574534,"17":0.1202221624186416,"18":0.43026490629031816,"19":-0.15956363706803306}},{"sx":1,"sy":1,"depth":20,"w":{"0":-0.2425645639980198,"1":0.7647317708929958,"2":-0.859375037348663,"3":0.226687686361772,"4":-0.1712578162354897,"5":0.08720302116578202,"6":-0.2144198353076596,"7":0.35575228357461874,"8":0.3273548866968997,"9":0.4280144923457419,"10":-0.6517332854438201,"11":-0.04069543315001518,"12":-0.6902180353823919,"13":0.1354497191837061,"14":0.26069099170064336,"15":0.03893480624037492,"16":-0.17836632092820295,"17":-0.25384857306250663,"18":-0.9572338881994135,"19":-0.13504759284611745}},{"sx":1,"sy":1,"depth":20,"w":{"0":-0.08147341202963487,"1":0.02697734030140224,"2":-0.016808134785155374,"3":-0.05651953297771023,"4":-0.03545745642363595,"5":-0.014870939995147601,"6":-0.006536279844950471,"7":0.023260372508463648,"8":0.09064586466094054,"9":-0.12046691401511245,"10":-0.12920649870086257,"11":-0.035688024518221416,"12":0.4102702513222528,"13":0.1456315595159084,"14":-0.05247209618134665,"15":-0.22446514697425657,"16":-0.09927783718919972,"17":0.14894993781970842,"18":0.016122394809864837,"19":-0.15495946981298933}},{"sx":1,"sy":1,"depth":20,"w":{"0":0.03401185090461854,"1":0.8588295340815697,"2":0.834145842661031,"3":-0.711512080556901,"4":-0.37088991509103825,"5":-0.23984702914528636,"6":0.07914465419374382,"7":0.8665751991514009,"8":0.3251760884741616,"9":0.34212554760904673,"10":-0.9785815661119749,"11":0.2737786266695529,"12":0.32974604805693847,"13":-1.5335472763454023,"14":-0.10541054075556183,"15":-0.30772006791247225,"16":-0.5792949868812813,"17":0.4741505668062852,"18":-0.4687004710443645,"19":-0.028764036776485372}},{"sx":1,"sy":1,"depth":20,"w":{"0":-0.8384673582764252,"1":0.6073626626809144,"2":0.4926073203156251,"3":0.2770349832486915,"4":-0.5798869308770622,"5":-0.17944657145910214,"6":0.16951192490647615,"7":0.9843956764593833,"8":0.26121373415247784,"9":-0.2838485176990708,"10":-0.37643186398045353,"11":0.05143265841245853,"12":0.4655206515734651,"13":-0.7648804427473039,"14":0.05966629840812124,"15":-0.2389528927207734,"16":-0.49997680033036507,"17":0.4527266558491637,"18":-0.5622354022478304,"19":-0.3702163096708077}},{"sx":1,"sy":1,"depth":20,"w":{"0":-0.000045640146401197016,"1":-0.00008816192524687479,"2":-0.00007388376699072408,"3":-0.00006219522968491381,"4":-0.00007050411283551406,"5":-0.00005948629140344011,"6":-0.00007140382255471975,"7":-0.000055849490603862453,"8":-0.0013423675072539967,"9":-0.000887082244248813,"10":-0.00033275006023429513,"11":-0.0008500667945898033,"12":-0.0009106758970918488,"13":-0.0003042004247027322,"14":-0.0013873986093597245,"15":-0.001231817488362942,"16":-0.0009207723241209049,"17":-0.000815045721706603,"18":-0.0003502359830090479,"19":-0.0008610382895521857}},{"sx":1,"sy":1,"depth":20,"w":{"0":-0.00029073518386017717,"1":-0.00022746903754395926,"2":-0.00024326392551969462,"3":-0.00012881452819219136,"4":-0.00020077645267632904,"5":-0.00011482052490713606,"6":-0.00021403654416365207,"7":-0.00007414097829961314,"8":-0.0019765761823992913,"9":-0.0013354863452945038,"10":-0.0009937335749759708,"11":-0.0017994992811778455,"12":-0.0016221128490195563,"13":-0.0002869668937252521,"14":-0.0020028470318362514,"15":-0.001935174448978775,"16":-0.001483565539831505,"17":-0.001728282966839932,"18":-0.0009917676865677956,"19":-0.0013166782810280862}},{"sx":1,"sy":1,"depth":20,"w":{"0":-0.00005499589436415308,"1":-0.00002537495299170664,"2":-0.00006876308650116244,"3":-0.00001367078270239862,"4":-0.00002388447944583739,"5":-0.000006880549070454402,"6":-0.000038365262440040236,"7":-0.000010987350858525884,"8":-0.0006653996432734097,"9":-0.0002231671651424625,"10":-0.00014629716590854744,"11":-0.00037362619756491446,"12":-0.00024186434561877093,"13":0.000010737494068786782,"14":-0.0008267736027452745,"15":-0.0005825175939637489,"16":-0.0002861246571359126,"17":-0.00040658421318795935,"18":-0.00015011279891482046,"19":-0.00022686176885280225}},{"sx":1,"sy":1,"depth":20,"w":{"0":0.5615483889441323,"1":-0.8759377663235186,"2":0.38520992520388525,"3":-1.4178330637845489,"4":-0.21103616080705367,"5":0.5510231330470033,"6":0.5044700363464035,"7":-1.4097101790442876,"8":0.19079879555431406,"9":-0.6873202523021679,"10":-0.0221604898527099,"11":0.02012349820696558,"12":-0.6962030818554167,"13":0.5574092379157242,"14":-0.08563740702348528,"15":0.5777790910127569,"16":-0.19129207983110627,"17":0.2689713676142872,"18":-0.5318467910069642,"19":-0.7021799742009196}},{"sx":1,"sy":1,"depth":20,"w":{"0":-0.07992107657832255,"1":0.02769050646740444,"2":-0.06361136702706686,"3":0.04749674537999101,"4":-0.016266522411957772,"5":-0.01974208849797277,"6":-0.0781956369260198,"7":-0.10613539548206224,"8":-0.23211658603358726,"9":-0.12461465972720895,"10":-0.2365231132812895,"11":-0.19395557829969348,"12":0.09711570153685373,"13":0.4477693601628271,"14":0.3043341840352163,"15":-0.10247779911031371,"16":-0.010377897392522716,"17":0.14611205144286055,"18":-0.30473990707713505,"19":-0.3650050271278594}},{"sx":1,"sy":1,"depth":20,"w":{"0":-0.5172437896844326,"1":0.06121127576818743,"2":-0.07645108230299878,"3":1.4752388631979485,"4":0.22110806551433335,"5":0.18013944118928607,"6":0.05571815838180162,"7":0.7115315176990447,"8":0.28584718263451525,"9":-0.034074947760558305,"10":0.5635754804564711,"11":-0.20498991783455608,"12":-0.5067043695873896,"13":-0.13763690337448845,"14":-0.19941731146386124,"15":0.40263857031063305,"16":0.4102473548824052,"17":-0.16921956475383185,"18":0.8917634005093075,"19":-0.0996797051162998}},{"sx":1,"sy":1,"depth":20,"w":{"0":-0.003045585026571917,"1":-0.0021629417068862486,"2":-0.003686007194984262,"3":-0.001506032181159495,"4":-0.002740643734091841,"5":-0.0015781109131873168,"6":-0.0024074143900171627,"7":-0.001212545334362086,"8":-0.0028998651855460596,"9":-0.0028304190362108267,"10":-0.003685035910139741,"11":-0.00319178435155521,"12":-0.003075325063848713,"13":-0.001738673429345058,"14":-0.0034701194307818228,"15":-0.003257422262229366,"16":-0.003348320726286742,"17":-0.0035596938400468897,"18":-0.00380646558918749,"19":-0.002899129641219789}},{"sx":1,"sy":1,"depth":20,"w":{"0":-0.00007817422851293317,"1":-0.00006398958466953498,"2":-0.00007007378686243085,"3":-0.00003070578837414142,"4":-0.00003405438742806568,"5":-0.000029278209626223115,"6":-0.0000352217084065513,"7":-0.000028234796209727657,"8":-0.0011621418539845831,"9":-0.0005045863790340596,"10":-0.00017509122563328543,"11":-0.0006865113716937344,"12":-0.0004754316030621108,"13":0.000036793575167425635,"14":-0.0014675760248716106,"15":-0.0010573144520881817,"16":-0.0005809235270599654,"17":-0.0008087294882354471,"18":-0.00018868864412488565,"19":-0.0005128933584756125}},{"sx":1,"sy":1,"depth":20,"w":{"0":-0.00042864959536526937,"1":-0.0006659550147625873,"2":-0.0004686118438656278,"3":-0.00034548228264843074,"4":-0.0002730542959523034,"5":-0.00015221958737598809,"6":-0.0003368730575602465,"7":-0.00016687264122475896,"8":-0.0032521797518846617,"9":-0.0018325351636372335,"10":-0.0010865823041924813,"11":-0.002442501381994069,"12":-0.0017331362742370256,"13":-0.0005827873643955019,"14":-0.003484400034040461,"15":-0.003101801705051036,"16":-0.001999938533233424,"17":-0.002485739952179986,"18":-0.0010980494164676954,"19":-0.0018350848908860343}},{"sx":1,"sy":1,"depth":20,"w":{"0":-0.00006671313665285862,"1":-0.00007162845734844526,"2":-0.00006335602241026536,"3":0.00000475736683968388,"4":-0.00006410903307656626,"5":-0.00004171253070385901,"6":-0.000038596805346508056,"7":-0.000015873820489311992,"8":-0.0011049325403793514,"9":-0.0003940109514091736,"10":-0.00027373017774405523,"11":-0.0007188452043987233,"12":-0.0004702980655769531,"13":-0.00009187837725532972,"14":-0.0017386802251030005,"15":-0.0012737433030855687,"16":-0.0005023473386205415,"17":-0.0006583719658417265,"18":-0.00027418312929463235,"19":-0.0003837625779379696}}],"biases":{"sx":1,"sy":1,"depth":20,"w":{"0":0.9371457831660188,"1":-0.08457475291012198,"2":-0.7311927625584473,"3":0.038464350679010904,"4":0.09176257056787807,"5":0.04446141336228872,"6":0.3332379401250988,"7":0.21277704757725524,"8":1.2472601000905166,"9":1.1189713560933647,"10":0.0974590416944079,"11":0.09306956368509003,"12":0.05492988403335828,"13":0.31446964592885873,"14":-0.07894284823770621,"15":-0.8692913260914077,"16":0.07408501303522033,"17":0.07069788405515694,"18":0.0947050820114218,"19":0.09173369465018577}}},{"out_depth":20,"out_sx":1,"out_sy":1,"layer_type":"relu"},{"out_depth":10,"out_sx":1,"out_sy":1,"layer_type":"fc","num_inputs":20,"l1_decay_mul":0,"l2_decay_mul":1,"filters":[{"sx":1,"sy":1,"depth":20,"w":{"0":-0.22608337171112633,"1":-0.591536797198479,"2":-0.95523441768149,"3":-0.844378923741507,"4":0.00016952793619366663,"5":-0.47573378146808426,"6":-0.5986223571087355,"7":-0.3135414044086118,"8":-0.4898563035587412,"9":-0.4717931309130155,"10":0.0023856310350403244,"11":-0.0018206235355350832,"12":0.000373950532099695,"13":-1.452531587851353,"14":-0.17521051484902564,"15":-0.6644702670661526,"16":0.0009505918403595676,"17":-0.00023880908552530554,"18":-0.0004470129263877777,"19":-0.001566704782455773}},{"sx":1,"sy":1,"depth":20,"w":{"0":-1.1938292507632051,"1":-0.49068753991034686,"2":-0.7091159300519103,"3":-1.3335770911017875,"4":-0.0004012926459015373,"5":-1.3051061025230233,"6":-0.5716874833048838,"7":-0.16366295307959078,"8":-0.979832819216884,"9":-1.2601788466681438,"10":0.0010917298243888678,"11":-0.0004002000580578052,"12":-0.00015465968019274569,"13":-1.0661102217916412,"14":-0.2491221878378441,"15":-0.5798154687481486,"16":-0.005163826760958584,"17":0.00034408817113039115,"18":0.0008092945534536219,"19":0.00041371812386267477}},{"sx":1,"sy":1,"depth":20,"w":{"0":-1.3211918373186908,"1":-0.642078840711662,"2":-0.7588796978191255,"3":0.06158624922555702,"4":0.00009148576310373426,"5":-1.443110558034444,"6":-0.5359522376251806,"7":-0.20639241693509597,"8":-0.8063991841198056,"9":-0.8791770054058538,"10":-0.0003016724950258368,"11":-0.002028998103731347,"12":-0.00031455482932737884,"13":0.020010239610046388,"14":-0.2923401263755006,"15":-0.656890187171584,"16":-0.004467309196882088,"17":-0.0003128517938088474,"18":-0.0015837469177089566,"19":-0.0004927699471331192}},{"sx":1,"sy":1,"depth":20,"w":{"0":-0.3411050840672291,"1":-0.28912071103385806,"2":-1.0560469056424686,"3":0.18692616932486775,"4":-0.00019533475797151294,"5":-1.0620459496984034,"6":-1.328244429413631,"7":-0.37154848851472017,"8":0.12351740837466074,"9":-0.368412802832371,"10":-0.0011195375324995688,"11":0.001295474937592605,"12":-0.00022882565422160947,"13":-0.07905600759095502,"14":-0.10687334154106383,"15":-1.6261778469790176,"16":-0.008921422548843238,"17":0.000004599083145749961,"18":-0.0003315405906843972,"19":0.0006668519508541709}},{"sx":1,"sy":1,"depth":20,"w":{"0":-1.058607132365168,"1":-1.045709260323134,"2":-0.3216540468517869,"3":-0.2610538364773968,"4":0.00008224799078515052,"5":-0.3337014899014771,"6":-1.1081603056502822,"7":-0.15147847061228506,"8":-1.0467600981605047,"9":-1.4291078788532843,"10":-0.001423853951446781,"11":0.0017962396320634118,"12":0.000636519890641843,"13":-1.0408850960378742,"14":-0.30630383678874945,"15":-0.8915828620418146,"16":0.006131264710304445,"17":-0.00015144072456456484,"18":0.0007729664979154173,"19":-0.00009448174246287389}},{"sx":1,"sy":1,"depth":20,"w":{"0":-0.29522828546265933,"1":-0.9010855715239897,"2":-0.9897087912969678,"3":-0.5223567980985218,"4":0.00022408317794571164,"5":-1.3154306523280965,"6":-0.34715866827000386,"7":-0.1481381886631848,"8":-0.7541162198524831,"9":-0.21237363369039428,"10":-0.0023044732202786317,"11":-0.0018222763811611281,"12":-0.0006610473849609213,"13":-0.6834185821755012,"14":-0.5472979602333519,"15":-0.8933304950554943,"16":-0.0009758623854156837,"17":-0.00041330825176484203,"18":0.0007761050620604632,"19":-0.0004808717939359375}},{"sx":1,"sy":1,"depth":20,"w":{"0":-1.2008711697728436,"1":-0.47959420501724154,"2":-0.5643427048652295,"3":-1.3516696514915645,"4":-0.0001213089120836579,"5":-0.7056836709511649,"6":-1.2485303715213592,"7":-0.288903909558688,"8":-1.924516560313452,"9":-1.4997146036875826,"10":0.0010286451643055613,"11":0.003392017706743256,"12":0.000515343886715897,"13":-0.4072070238209326,"14":-0.25870496614127364,"15":-0.5614533653726463,"16":0.004667962450063194,"17":0.0005308797932638099,"18":-0.0007798839605984542,"19":0.00003816059987390716}},{"sx":1,"sy":1,"depth":20,"w":{"0":-1.1126220384872048,"1":-0.4989066317535341,"2":-0.5238944897169667,"3":-1.1697014614143872,"4":-0.00057586924093969,"5":-0.580642616323831,"6":-1.4010922132509143,"7":-0.20927078823984233,"8":-1.7172979673868962,"9":-1.3841961906816995,"10":-0.000779362498361405,"11":-0.0004033342938582991,"12":-0.0001753754051765016,"13":-1.143637381572219,"14":-0.17654138017861606,"15":-0.6400689650203643,"16":-0.007248381855048778,"17":-0.0002831001870513499,"18":-0.0004410801018687674,"19":-0.00006935348728361383}},{"sx":1,"sy":1,"depth":20,"w":{"0":-0.3632602159269072,"1":-1.5520987499970988,"2":-1.270130015501365,"3":-0.9305411085935362,"4":-0.00019051557518891686,"5":-0.32825322002891993,"6":-0.4455830868148049,"7":-0.4162475361694651,"8":0.16772103368755745,"9":-0.13832721615267216,"10":-0.0008918781962431523,"11":-0.0032467287079975117,"12":-0.00015761693034889546,"13":-1.5912744330857733,"14":-0.426149207826578,"15":-0.8649120370044576,"16":-0.005369405106047435,"17":0.00045813992473511735,"18":-0.0019232660486627464,"19":0.0008633062068066061}},{"sx":1,"sy":1,"depth":20,"w":{"0":-1.2669520101034988,"1":-0.7483957469836873,"2":-1.093978944180953,"3":-0.9236669248179837,"4":0.00018043016911712344,"5":-0.6601078775138463,"6":-0.9495457787890722,"7":-0.15705004951454976,"8":-1.842053268155649,"9":-0.7518506891749192,"10":-0.0006141598980173398,"11":0.001557286220626632,"12":-0.00016558660084084844,"13":-0.304067181755053,"14":-0.20034394423923496,"15":-0.26215569445278186,"16":-0.0005216503545257542,"17":-0.0003103842347727779,"18":0.0008775223169313199,"19":0.0005740023175860172}}],"biases":{"sx":1,"sy":1,"depth":10,"w":{"0":0.10048904710037093,"1":-1.1724929773546642,"2":-1.2189282277997129,"3":-0.5371852183890253,"4":-1.035417002608807,"5":-0.4753409605125404,"6":-1.172087776446457,"7":-0.8751195999790469,"8":-0.5948370862906396,"9":-1.2074069834737007}}},{"out_depth":10,"out_sx":1,"out_sy":1,"layer_type":"softmax","num_inputs":10}]}