{"layers":[{"out_depth":20,"out_sx":1,"out_sy":1,"layer_type":"input"},{"out_depth":20,"out_sx":1,"out_sy":1,"layer_type":"fc","num_inputs":20,"l1_decay_mul":0,"l2_decay_mul":1,"filters":[{"sx":1,"sy":1,"depth":20,"w":{"0":-0.00013113907599696047,"1":-0.00016489756440925672,"2":-0.00007950255058639654,"3":-0.00011490366028891775,"4":-0.00011972521460226324,"5":-0.0000683207842465703,"6":-0.000016475290110037644,"7":-0.000004384251803125463,"8":-0.0016703910367734285,"9":-0.00048599919076210824,"10":-0.00043084989246230547,"11":-0.0008608646296074318,"12":-0.0007360119040162883,"13":-0.0008760673103810141,"14":-0.0011151179529536879,"15":-0.0010969319258936946,"16":-0.0005624741988090657,"17":-0.0003897208537110267,"18":-0.0009165409992976463,"19":-0.0009373649734576527}},{"sx":1,"sy":1,"depth":20,"w":{"0":-0.00010288340005789699,"1":-0.00002084489805429729,"2":-0.00007472431298095551,"3":-0.000011446336496904646,"4":-0.000014217193827526452,"5":0.000002797228947261473,"6":-0.0002479770434608216,"7":-0.00001157699963098888,"8":-0.0008895639337679606,"9":-0.0005185371625355534,"10":-0.00020944109482377146,"11":-0.0006627119599250023,"12":-0.0007086845448237777,"13":-0.0007570927440268576,"14":-0.0007314769133205753,"15":-0.0008883193306715607,"16":-0.0005841264670249021,"17":-0.0005254740907100537,"18":-0.000765695283409352,"19":-0.0006005574806748546}},{"sx":1,"sy":1,"depth":20,"w":{"0":0.34339903365043734,"1":0.6253159167250748,"2":0.7500289408131963,"3":-1.3446738739874342,"4":-0.15478007407587022,"5":0.47686076181397363,"6":0.42275336016538667,"7":0.4529266495270014,"8":0.01535172157785031,"9":0.02154781478516601,"10":-0.732594391165024,"11":-0.28693000658061624,"12":0.6197582799147344,"13":-0.3178076806488288,"14":-0.23408163813618948,"15":0.9508488235612748,"16":-1.0389487254672374,"17":-0.11853626354574247,"18":-0.8053135532400308,"19":-0.051020050786651214}},{"sx":1,"sy":1,"depth":20,"w":{"0":-0.3925509380032987,"1":0.29417007591350874,"2":-0.5411793129735003,"3":1.4742743086788153,"4":-0.5522640262337472,"5":-0.2710647343910151,"6":-0.059783252778013635,"7":1.5883549194341398,"8":0.5743763508372048,"9":0.9270426083382967,"10":0.6111022267257707,"11":-0.10214342265199515,"12":0.21964435398566592,"13":0.4476016275493466,"14":-0.868076843355408,"15":-0.3059628075185792,"16":-1.122632537632387,"17":-0.6299719777446312,"18":0.6167725606417094,"19":-0.15585028003975268}},{"sx":1,"sy":1,"depth":20,"w":{"0":0.8714834919371907,"1":-0.06179082044350612,"2":0.336783136764777,"3":-0.8235785437667276,"4":-0.08935690338578173,"5":0.07325599682162645,"6":0.07546452929880774,"7":-0.5313574930948153,"8":0.5028589522949306,"9":-1.232846086246279,"10":-0.9682223496211472,"11":0.12816775129334027,"12":-0.07079573088552825,"13":0.25099561900105327,"14":-0.1322179853211621,"15":-0.22033650542150662,"16":0.5467534249864155,"17":-1.6299434011697251,"18":0.23256753453876847,"19":0.340846673254261}},{"sx":1,"sy":1,"depth":20,"w":{"0":-0.00016515166293092176,"1":-0.00017724932287065616,"2":-0.00035540756748561955,"3":-0.00005898951380071176,"4":-0.0001455569789095576,"5":0.000005463163681047529,"6":-0.00016576880588795457,"7":-0.000024433378210934398,"8":-0.0005162686700316333,"9":-0.00027841858353995903,"10":-0.00047835359355950335,"11":-0.0005420505394874883,"12":-0.0006402859613930653,"13":-0.0005609213872882189,"14":-0.0005936430450885652,"15":-0.0008710154106942833,"16":-0.0003520896308051006,"17":-0.00043593257666199614,"18":-0.0005382524243002589,"19":-0.0003700917722781109}},{"sx":1,"sy":1,"depth":20,"w":{"0":-0.00008896689260734987,"1":-0.000024406045641036272,"2":-0.00012069354960527601,"3":-0.00003698749490942508,"4":-0.0001453680559398942,"5":-0.00009245864894524081,"6":-0.000035822992520794634,"7":-0.000019881679664414323,"8":-0.000691912222143735,"9":-0.0006986265231600015,"10":-0.000630293064992072,"11":-0.0009351251353133559,"12":-0.0009290819318958514,"13":-0.000980863170459619,"14":-0.0011262948356174345,"15":-0.0010630542931377269,"16":-0.0008133893955413967,"17":-0.000781720095485785,"18":-0.001069428570368994,"19":-0.0006344259952054565}},{"sx":1,"sy":1,"depth":20,"w":{"0":-0.00010825046864515254,"1":-0.00007549093299835167,"2":-0.00008115348902162512,"3":-0.00004203650575459137,"4":-0.0000649605265625139,"5":-0.00004017576187485806,"6":-0.00006866964593268093,"7":-0.000017136303629477213,"8":-0.0014496469631840464,"9":-0.0005542655552754119,"10":-0.00032341295506687056,"11":-0.0008877780124591778,"12":-0.0009296549581253492,"13":-0.0010574959834050803,"14":-0.0012749112680555783,"15":-0.0012157154641081384,"16":-0.0006012250763665436,"17":-0.0005204534621671318,"18":-0.0009404730064438379,"19":-0.0007142055441619963}},{"sx":1,"sy":1,"depth":20,"w":{"0":-0.00031926906370895365,"1":-0.0004610510802516932,"2":-0.00034579957400037304,"3":-0.00024401937092549797,"4":-0.00032806888925672055,"5":-0.00015834691727040605,"6":-0.00044782473292556696,"7":-0.00014723537029973866,"8":-0.001512762672062312,"9":-0.0012655108797670386,"10":-0.001043734611942326,"11":-0.001569810422269869,"12":-0.001410565195764054,"13":-0.0013458525218522878,"14":-0.0018397025418166466,"15":-0.0012037383205249286,"16":-0.001076351650569006,"17":-0.001211461356114268,"18":-0.0008827948952290084,"19":-0.0015784352826075628}},{"sx":1,"sy":1,"depth":20,"w":{"0":-0.19089668345261673,"1":0.29596004267376985,"2":0.21436687006116373,"3":0.044514771239608675,"4":0.006897063084570844,"5":-0.05636038096422568,"6":-0.05507593142703667,"7":0.11473351664158825,"8":0.5392032364592166,"9":-0.4190194380345322,"10":-2.6243133793758506,"11":-0.05293488735817286,"12":0.4465558865337144,"13":0.3309021492617823,"14":-0.4685007550583542,"15":0.6110583293968995,"16":-0.1731995131509006,"17":-0.5152999633061764,"18":-1.134586517551391,"19":-0.13374922153057037}},{"sx":1,"sy":1,"depth":20,"w":{"0":-0.00004692618990529502,"1":-0.000051820538215164346,"2":-0.000057285417975607804,"3":-0.000041880685931882046,"4":-0.00003761209491086169,"5":-0.000023103514868259825,"6":-0.00003806601386379394,"7":-0.000019701679283558456,"8":-0.000771167464312098,"9":-0.0004167617231430448,"10":-0.00016108470602332767,"11":-0.0004995079317704338,"12":-0.000552971921229941,"13":-0.0006252007585926131,"14":-0.0007310099957968913,"15":-0.0005367468251604478,"16":-0.0004113013739360293,"17":-0.00036768115522858646,"18":-0.0004183656644793571,"19":-0.0003289555714772366}},{"sx":1,"sy":1,"depth":20,"w":{"0":-0.0008851582711165156,"1":-0.000611334254175251,"2":-0.0009683849143632387,"3":-0.0006397543215543866,"4":-0.0005434401583757153,"5":-0.0003805272248783379,"6":-0.0006776717034970119,"7":-0.00031607570332365677,"8":-0.0005698850905156105,"9":-0.00012530040762954038,"10":-0.0006926121368148942,"11":-0.0001949915291145472,"12":-0.00031444183933574467,"13":-0.0002913043291217111,"14":-0.000042567694199496574,"15":-0.00064633283940201,"16":-0.000579723679331527,"17":-0.00025222039605048813,"18":-0.000838638853431631,"19":0.00005268472930276414}},{"sx":1,"sy":1,"depth":20,"w":{"0":-0.00031146885358523626,"1":-0.00018376726348888446,"2":-0.0004107774422452691,"3":-0.00019857985590111387,"4":-0.00023664241902877271,"5":-0.00007537906210852713,"6":-0.00024610286046794423,"7":-0.00006608104841125473,"8":-0.0020545938782709793,"9":-0.001427067984388899,"10":-0.001070923542102526,"11":-0.0018183222809210556,"12":-0.0018274676895494732,"13":-0.0018843177803494024,"14":-0.002040674542388468,"15":-0.0019775873311429445,"16":-0.0014417432469415884,"17":-0.0014232805820920296,"18":-0.0017988888485016676,"19":-0.0016175135320982462}},{"sx":1,"sy":1,"depth":20,"w":{"0":-0.9571536642311229,"1":-1.135680736824154,"2":0.5772451735715046,"3":-0.7842341581858052,"4":0.28249956684103833,"5":0.32277408739968977,"6":0.23388933899010728,"7":-0.15866196927739445,"8":-0.05159527682835674,"9":-1.180821748412371,"10":1.1783712686464511,"11":0.0797390895276118,"12":-0.2875320078592923,"13":0.3661364210200442,"14":-0.03780067857061305,"15":-0.5135329356093876,"16":0.8587553736180814,"17":-0.02681954128403836,"18":1.1038417968094294,"19":-0.2746575667996657}},{"sx":1,"sy":1,"depth":20,"w":{"0":-0.000043686556079839126,"1":-0.00010023300917494544,"2":0.000043045194424980705,"3":-0.00007894482275984872,"4":-0.000006803153843736931,"5":-0.000031594190316963153,"6":0.000015975527737695187,"7":-0.000022054722011728046,"8":-0.0010258646043647369,"9":-0.0003160937279647636,"10":-0.00004566804572870044,"11":-0.00037050032716985404,"12":-0.000496660151449703,"13":-0.0006536788145434153,"14":-0.0002533132424718486,"15":-0.0004506916092600955,"16":-0.0003733312661791146,"17":-0.0002249712497572528,"18":-0.0005851349333538694,"19":-0.00037715686930842745}},{"sx":1,"sy":1,"depth":20,"w":{"0":0.8235281729038287,"1":-0.5653241236501968,"2":-0.04621742814798289,"3":-1.0062243093780898,"4":-0.0333572429299018,"5":-0.2354181119986256,"6":-0.03957073155162321,"7":-0.6927735039710029,"8":0.0954333801725647,"9":-0.4804368111214375,"10":-0.27861024335892715,"11":0.050317917764431126,"12":0.04575286602678915,"13":0.14573250595963247,"14":0.5307984231890351,"15":-0.4549705615936282,"16":0.5107953308631756,"17":0.564651299019181,"18":0.401152628715541,"19":-1.4123428329865193}},{"sx":1,"sy":1,"depth":20,"w":{"0":-0.00021156689753525255,"1":-0.00020539699757654605,"2":-0.0003259675316220806,"3":-0.00009397181565010898,"4":-0.00021779764266383276,"5":-0.00015908416074252504,"6":-0.00003334784994091014,"7":-0.00011518352286959717,"8":-0.0010735291570218668,"9":-0.0008609294736192778,"10":-0.0006003410402825137,"11":-0.0007763215676287417,"12":-0.0008036709823321446,"13":-0.0008309043274486363,"14":-0.000801877979316262,"15":-0.00068250013445384,"16":-0.0008217870501829192,"17":-0.0008568941396616498,"18":-0.0004676234244138691,"19":-0.0009738007318350284}},{"sx":1,"sy":1,"depth":20,"w":{"0":0.2365953408099247,"1":-0.07400904483537116,"2":0.08227520779657554,"3":-0.13618191340743513,"4":0.09721049849309174,"5":-0.18005117568339402,"6":-0.03337306178796945,"7":-0.23869800653956252,"8":-0.1490461110274299,"9":-0.0010662199611818253,"10":0.0938414361842644,"11":0.35900678729220714,"12":-0.37442843409166243,"13":-0.07308723748348839,"14":0.6550159243947876,"15":-0.41036443679985796,"16":0.298865030655471,"17":0.16907119597342513,"18":-0.5565707581078407,"19":0.05441210616991448}},{"sx":1,"sy":1,"depth":20,"w":{"0":0.07188631835300195,"1":-0.37171138725864394,"2":0.9454825821327147,"3":0.25872659637786705,"4":0.21331272084879319,"5":0.3259087515314093,"6":0.1915028056045411,"7":-0.04815210277329641,"8":0.6860652485427584,"9":-0.7158414412038286,"10":-1.0523240408263057,"11":0.10741843958198714,"12":0.3394954330055856,"13":0.2420689274432917,"14":0.04926806583350783,"15":-0.05076030588662348,"16":-1.312375439329834,"17":-1.4642700260518418,"18":0.14393076356452805,"19":0.3855937954629675}},{"sx":1,"sy":1,"depth":20,"w":{"0":-0.7987935363148717,"1":0.4463892761682169,"2":-0.45509398888275726,"3":0.24679094198415324,"4":-0.03237201582433548,"5":-0.049353055355481575,"6":0.33823675758843313,"7":0.27326467089084766,"8":-0.4056988687729255,"9":0.8046595656120333,"10":-1.877481062347968,"11":0.5645072636101109,"12":0.4154933131946306,"13":0.21333720123053745,"14":0.7188711192852969,"15":0.016294479397880268,"16":-0.9360441621292114,"17":-0.28176797394969033,"18":-0.6647619044448257,"19":-0.23207390463934385}}],"biases":{"sx":1,"sy":1,"depth":20,"w":{"0":0.06039817539895488,"1":0.06108446715101962,"2":3.5359689626981714,"3":0.5652317928767334,"4":1.2418562708092167,"5":0.06514508324114951,"6":0.06526728916862876,"7":0.0733027011613602,"8":0.07025752449408343,"9":2.6413394250579163,"10":0.0565409502136872,"11":0.03220334145682922,"12":0.07069860403739806,"13":-1.7393071534433584,"14":0.00857932581048234,"15":-0.8477957753564124,"16":0.057158628722905454,"17":-0.6613308637410137,"18":1.5497854222654617,"19":0.36975554147807144}}},{"out_depth":20,"out_sx":1,"out_sy":1,"layer_type":"relu"},{"out_depth":10,"out_sx":1,"out_sy":1,"layer_type":"fc","num_inputs":20,"l1_decay_mul":0,"l2_decay_mul":1,"filters":[{"sx":1,"sy":1,"depth":20,"w":{"0":-0.0016373545710248667,"1":-0.00040625476345685247,"2":-1.1780438710412404,"3":-2.2822613601812813,"4":-2.6269097778556487,"5":0.00004860437724333788,"6":-0.0011552278871219267,"7":-0.0001304071104454105,"8":0.00003956345500200181,"9":-1.892965302561058,"10":-0.0003506822872588475,"11":0.0007413564973378819,"12":-0.000877198083098361,"13":-2.8230450046281623,"14":0.0014801801211172865,"15":-2.7805128155778007,"16":-0.0019237164340309624,"17":-0.8210119764575508,"18":-2.4891654417222977,"19":-2.2701683301969453}},{"sx":1,"sy":1,"depth":20,"w":{"0":0.0007361734103603236,"1":-0.0001926365951659372,"2":-2.3798454554126627,"3":-3.228449653126347,"4":-0.42463542120436754,"5":-0.0012406635752794878,"6":-0.00036803720943054727,"7":-0.00006021301575449172,"8":-0.0009956418108854174,"9":-0.7967250637618061,"10":-0.00005832541411093197,"11":-0.003206680221852011,"12":-0.00019319028030581435,"13":-2.397246225596832,"14":-0.00030880228618105363,"15":-2.920235287900757,"16":-0.0016733092261253207,"17":-1.0301428414232636,"18":-3.2851429188990706,"19":-1.6104987823337462}},{"sx":1,"sy":1,"depth":20,"w":{"0":-0.0021142950462877314,"1":0.0009838938540995773,"2":-2.3303188349282,"3":-3.0937678404495603,"4":-2.09782328113766,"5":-0.0015262094864024842,"6":-0.0032143602417003497,"7":-0.00007435477663766547,"8":0.0004775224432441579,"9":-0.7463183482888919,"10":0.00016845582401792903,"11":-0.0026359625824177065,"12":-0.00021757795168610478,"13":-2.3473774176572735,"14":-0.000987133418277969,"15":-2.5481483815809174,"16":0.0017865760442622258,"17":-0.9150925566849789,"18":-3.009755041720924,"19":-2.2408183404295894}},{"sx":1,"sy":1,"depth":20,"w":{"0":-0.0018930352522409136,"1":-0.0005429300614052765,"2":-1.748237068792174,"3":-3.7864500408443043,"4":-3.0090777707249567,"5":-0.0012429010717286747,"6":0.0019359623462369842,"7":-0.00008666293359266675,"8":-0.0005912884967153067,"9":0.31778122613046655,"10":-0.000024695205895316733,"11":0.0012549260991480396,"12":0.00004434774919113015,"13":-2.1839161409071295,"14":-0.0007260365197073595,"15":-2.606424119091109,"16":-0.00005708254050474177,"17":-0.756778512541166,"18":-2.22277779119045,"19":-2.668228838671062}},{"sx":1,"sy":1,"depth":20,"w":{"0":-0.0005821632863410777,"1":0.0012351552741950843,"2":-0.5146184986412246,"3":-3.005841397533285,"4":-1.4545602117187262,"5":-0.0010823888944276674,"6":0.002969759857425075,"7":-0.00004891185595735226,"8":-0.0023146475158381244,"9":-0.6154004170830876,"10":-0.000015541721819734188,"11":-0.004878579789531757,"12":-0.0003890772989025565,"13":-2.4184361084856665,"14":0.001305481679164629,"15":-2.684776466055031,"16":0.001156489016993735,"17":-1.432362467205276,"18":-3.314966058684923,"19":-3.6063030427786}},{"sx":1,"sy":1,"depth":20,"w":{"0":0.0020666625255503267,"1":-0.000864912954835389,"2":-2.1054801266136725,"3":-2.8561791828018412,"4":-2.120139025006986,"5":-0.0016859736479164116,"6":-0.003506168157244511,"7":-0.00021051530425223938,"8":0.00015662143137316138,"9":-1.0828413429698382,"10":-0.00005389564783234191,"11":-0.0022130255303167813,"12":-0.001475426707746656,"13":-3.2269885515035672,"14":-0.001164924065810202,"15":-2.3366268356187323,"16":0.00013271347469003664,"17":-1.5914270630585907,"18":-2.9756045176946357,"19":-2.5655585226743893}},{"sx":1,"sy":1,"depth":20,"w":{"0":-0.001603781897718563,"1":-0.0011606759299524678,"2":-2.2924605571923524,"3":-3.0208033621711703,"4":-1.969391276275325,"5":0.0008265350478568138,"6":0.003274234538460503,"7":0.00010023549156235918,"8":0.0005345454508195785,"9":-0.645050609168316,"10":0.00030514451914895915,"11":-0.00016390440380876253,"12":0.0012966098724116759,"13":-2.465296348019408,"14":-0.0008342652546050874,"15":-2.398500697672136,"16":-0.003138777879536266,"17":-1.0191019466328757,"18":-2.8835665091415215,"19":-3.544652570397226}},{"sx":1,"sy":1,"depth":20,"w":{"0":-0.000845335551425009,"1":0.00030818605709346055,"2":-0.6431784085520553,"3":-2.21948376180551,"4":-1.9231777485990427,"5":0.00029802279949083676,"6":-0.0030772030764470225,"7":-0.00015343000503054694,"8":-0.002170191724964344,"9":-0.2551929319566914,"10":0.0000699168721393139,"11":-0.006014003330814762,"12":0.0014175178417726321,"13":-1.6556629255153916,"14":0.0014311636629644917,"15":-2.973402115958501,"16":-0.002364364357269343,"17":-0.9702140067187903,"18":-3.303100598684221,"19":-1.9268575221982356}},{"sx":1,"sy":1,"depth":20,"w":{"0":0.0020814355058753806,"1":-0.001453756961528036,"2":-2.733714364794459,"3":-2.957481189065506,"4":-2.1617761164247815,"5":-0.00011774246778689376,"6":-0.003170606085799241,"7":0.00010796931270337803,"8":0.0018537622144583635,"9":-0.91625949210251,"10":0.00009948524960608987,"11":-0.00297483859350503,"12":-0.000004495847569958211,"13":-2.770219664576427,"14":0.0014875451065864075,"15":-2.5222947386291206,"16":0.0005728037214388585,"17":-1.5597243278109358,"18":-2.6171111273714858,"19":-2.309138978744809}},{"sx":1,"sy":1,"depth":20,"w":{"0":-0.0021803907804140692,"1":0.00021053057951514944,"2":-2.052683209855895,"3":-2.3248457053041927,"4":-1.9623747747107545,"5":0.0010844649128634416,"6":-0.0034538834248879604,"7":0.0004892393705072579,"8":-0.0019991085881146554,"9":0.24804567373129804,"10":0.00006625832673543548,"11":-0.0010958169025762881,"12":-0.00024614668910553905,"13":-3.1810171898735278,"14":-0.0016402929235532528,"15":-2.918804515135305,"16":0.00037633096525510357,"17":0.041289862131470206,"18":-2.9041092462376925,"19":-2.5308640828236046}}],"biases":{"sx":1,"sy":1,"depth":10,"w":{"0":-3.274059824806951,"1":-4.981948660273914,"2":-3.4556921672848318,"3":-6.417810499612512,"4":-1.5794080863346425,"5":-2.335045400232283,"6":-2.952189018075932,"7":-6.70990961642847,"8":-3.654053263056008,"9":-4.031943525422632}}},{"out_depth":10,"out_sx":1,"out_sy":1,"layer_type":"softmax","num_inputs":10}]}